  0.33487 0.3212 -0.19904 0.19233 -0.72478 0.00061644 0.41991 -0.86428 -0.14715 0.01613 -0.54769 -0.248 -0.20131 -0.12695 1.251 0.045988 -0.6522 -0.27137 -0.24058 -0.033734 0.47965 0.19413 0.53269 0.26017 -0.70479 0.14542 -0.36004 0.32641 -0.25681 -0.14847 0.13686 -0.2023 -0.13531 0.15316 -0.44595 0.21163 -0.46914 -0.23965 -0.21444 0.63288 -0.51022 0.14309 -0.37161 -0.29233 0.51553 -0.048651 0.28806 -0.014212 0.76507 -0.22572 -0.038384 -0.13894 -0.085643 0.21131 -0.12605 0.13177 -0.088607 -0.092465 -0.41521 0.5212 0.7703 -0.18132 -0.59402 -0.54863 0.62929 0.028026 -0.83444 -0.044834 -0.040987 0.42322 -0.1863 -0.20569 0.30066 -0.060775 -0.23056 -0.40722 -0.28145 0.64515 0.18935 -0.15721 -0.28771 -0.4646 0.028692 -0.21913 0.6794 0.070066 0.19841 0.16471 0.14666 -0.27081 -0.18114 0.22238 -0.36991 0.10712 -0.20781 0.40301 -0.52689 0.23838 0.20403 0.5222
the -0.22261 0.12259 0.16013 0.23339 -0.064319 0.16977 -0.038497 -0.04336 0.049691 -0.25051 -0.20304 -0.17705 -0.1465 -0.049451 0.2642 0.3131 -0.18388 -0.45037 -0.35624 0.16527 -0.13423 -0.022588 0.15713 0.038231 -0.13828 -0.12135 -0.078616 -0.052587 -0.30302 -0.1376 -0.074297 0.2551 -0.22379 -0.063485 -0.25039 0.24917 0.037777 0.1569 -0.11448 0.069179 0.065812 0.19383 -0.0047385 -0.21913 -0.40776 -0.20717 -0.19534 0.051111 0.0073654 -0.1527 0.16304 -0.0082322 0.12714 0.22958 0.15004 0.062257 -0.11735 -0.041667 0.5042 0.088501 0.23503 0.022384 -0.021677 -0.19399 0.224 -0.033534 -0.040881 -0.19453 -0.05907 0.14928 0.070386 -0.35623 0.22711 0.12515 -0.56982 -0.28199 0.26882 0.27302 0.24098 -0.073375 0.12702 -0.095985 0.32498 -0.16175 -0.34212 -0.035623 -0.012571 0.2401 -0.05865 0.02883 0.19178 -0.21803 -0.026054 -0.12822 0.1309 0.24768 -0.052352 -0.4268 -0.15337 -0.10426 
dog -0.042334 0.036775 0.48686 0.10786 0.0067142 1.4311 -0.232 -0.39174 0.21961 -0.31416 0.29667 -0.46795 -0.13186 0.70379 0.23766 0.27279 -0.15947 0.025194 -0.21503 0.25015 -0.33833 0.05898 0.47146 -0.50032 0.38764 0.065599 -0.68591 -0.45854 -0.056677 -0.021775 0.75864 -0.2771 -0.061889 0.32304 0.11623 0.064307 0.042194 0.20909 -0.38303 0.27441 -0.60917 -0.13187 0.074057 -0.085433 0.19164 0.14703 -0.45096 0.2503 0.18657 0.37667 -0.64127 -0.094113 -0.062731 0.55421 0.59948 -0.27419 -0.13334 -0.17314 0.66036 -0.37844 0.27615 -0.28214 0.022973 0.060249 -0.15568 0.16364 0.30506 -0.17894 -0.37779 -0.38428 0.24351 -0.43141 0.4746 -0.20009 0.10854 0.027124 0.19713 0.70989 -0.29108 -0.068476 0.30636 -0.094302 0.49634 -0.12972 0.22241 -0.34885 0.59426 0.62642 -0.47864 -0.27123 0.30138 -0.23232 -0.053155 0.16212 -0.19751 -0.13771 -0.30582 -0.033414 -0.25442 0.52441 
of -0.17928 0.41429 0.051785 0.094477 -0.066275 0.040364 0.1222 -0.24443 -0.11419 -0.31713 -0.13211 -0.1995 0.050665 0.059851 0.41859 0.26891 -0.1443 -0.47275 -0.20073 0.31989 -0.064601 -0.058081 0.13584 -0.038953 -0.14742 -0.066862 -0.12693 -0.0090362 -0.18043 -0.16143 -0.23535 0.17248 -0.16619 -0.08454 -0.15514 0.39227 -0.1618 -0.079712 -0.22527 0.10378 0.0481 0.070759 -0.13939 -0.071879 -0.24417 -0.036046 -0.18706 0.14601 0.072557 -0.13494 -0.026269 -0.13743 0.083163 0.29985 0.047847 0.12053 -0.035517 -0.23 0.1791 0.060908 0.096601 0.023086 -0.20249 0.075072 0.32928 -0.078732 -0.048435 0.056299 -0.011222 0.18759 -0.0078781 -0.26159 0.38383 0.28411 -0.35916 -0.28937 0.23929 0.22975 0.27391 -0.25405 -0.059493 -0.17864 0.27116 -0.21364 -0.34199 0.21329 -0.017551 0.22869 -0.082936 -0.035352 0.073599 -0.14146 -0.082392 -0.25054 0.16592 0.3868 -0.048121 -0.21036 -0.15844 -0.010662 
and -0.1463 0.098075 0.052761 0.21699 -0.09024 0.16083 -0.015319 -0.22508 0.082783 -0.22279 -0.052972 -0.21422 -0.14134 0.024633 0.2958 0.24948 -0.15083 -0.44785 -0.23182 0.14817 0.088431 0.032978 0.095452 -0.033378 -0.2078 -0.0091342 -0.14159 -0.022822 -0.14811 -0.077265 -0.0069473 0.4114 -0.28392 0.022356 -0.29941 0.31691 -0.089442 -0.1455 -0.10811 -0.072472 -0.08374 -0.025919 -0.24286 -0.15832 -0.096394 -0.18115 -0.22743 -0.085238 0.05011 -0.14314 0.04991 -0.064161 0.25352 0.15826 0.18613 -0.015496 -0.012511 -0.12676 0.37282 0.099931 0.027232 0.1633 -0.049805 -0.081609 0.34488 -0.098941 -0.16615 -0.12025 -0.26842 0.062522 0.15555 -0.30862 0.24541 0.25284 -0.41723 -0.3538 0.16862 0.19344 0.16976 -0.16065 0.065205 -0.24685 0.31603 -0.16666 -0.2119 0.21588 -0.056701 0.012185 -0.071164 -0.062219 0.21657 -0.22596 -0.12518 -0.10346 0.19231 0.20341 -0.11201 -0.36538 -0.028136 -0.10867 
one -0.3102 0.22004 -0.04859 0.33213 -0.17764 0.13833 0.10761 -0.32065 0.028813 -0.38037 -0.31185 -0.11725 -0.22336 -0.02004 0.4737 0.121 -0.16494 -0.46969 0.05715 0.075715 -0.01239 -0.064724 0.076196 0.1633 -0.25542 -0.15232 -0.23047 -0.11946 -0.17286 0.02197 0.10624 0.11908 -0.25445 -0.1253 -0.43633 0.35049 -0.39357 0.075665 -0.2522 0.069654 -0.04759 0.074848 0.022017 -0.3164 -0.30263 0.091513 0.25801 0.047826 0.11286 0.037795 -0.10686 -0.21221 0.30474 0.11158 0.32695 0.0030109 0.18953 0.27313 0.56656 -0.085982 -0.21703 -0.054552 -0.23548 -0.069355 0.23904 -0.27803 -0.27428 0.50906 -0.28772 0.15577 -0.12451 -0.44461 0.27914 0.16018 -0.22288 -0.38948 0.094184 0.3195 0.42554 -0.1715 0.071583 -0.281 0.29609 0.0070173 -0.010451 0.14303 -0.25882 0.15709 0.06257 -0.39839 0.03759 -0.042446 -0.0041635 0.10735 0.10067 -0.045215 -0.27492 -0.24381 -0.26808 -0.21418 
in -0.35333 0.086148 0.052801 0.49514 -0.077332 0.11338 -0.091644 -0.31089 0.056538 -0.26764 -0.19744 -0.30154 -0.26332 0.2104 0.43641 0.18636 -0.31822 -0.50457 -0.44951 0.11266 0.049964 0.1217 0.20129 0.093817 -0.17042 -0.0089496 -0.22543 0.057064 -0.39747 0.012308 -0.026131 0.27477 -0.38696 -0.040477 -0.16154 0.30574 -0.056981 0.028416 -0.2217 -0.073606 -0.032142 -0.022433 -0.039088 -0.2281 -0.22537 -0.15814 -0.14031 -0.046145 -0.0088966 -0.10552 0.086444 -0.0085401 0.2555 0.094 0.28427 0.088731 0.04871 -0.09557 0.36947 0.11744 0.17759 0.098734 -0.056155 -0.30577 0.28054 -0.24522 -0.19051 -0.11795 -0.33307 0.15002 0.14801 -0.30926 0.37443 0.29551 -0.65059 -0.41025 0.23204 0.31304 0.2454 -0.34145 0.063231 -0.32773 0.16893 -0.2745 -0.29624 0.076545 -0.19808 0.087632 -0.038334 0.066554 0.077129 -0.37816 -0.14132 -0.30016 0.084454 0.23323 -0.15501 -0.48396 -0.11888 -0.09294 
a -0.22575 0.24612 0.38397 0.21563 -0.025814 0.40657 0.011673 -0.10792 -0.10367 -0.44242 -0.15666 -0.080424 -0.13996 0.2527 0.43853 0.07929 -0.32814 -0.43618 -0.1462 0.26086 -0.17345 -0.2146 0.24228 -0.020891 -0.073595 -0.12261 -0.23821 -0.13498 -0.22094 -0.049522 -0.16381 0.24177 -0.12149 0.013072 -0.043974 0.33716 0.0022867 -0.13268 -0.29164 0.2195 -0.26658 0.037064 -0.049768 -0.057166 -0.11756 -0.067001 -0.11438 0.050658 0.1978 -0.0018863 -0.14293 -0.24832 0.089425 0.021004 -0.012359 0.11717 -0.0049723 0.025283 0.46188 0.086204 0.11486 0.10183 -0.14703 0.13799 0.18243 -0.026643 0.074688 0.0032507 -0.11902 -0.070325 -0.10124 -0.10785 0.25885 -0.051752 -0.36567 -0.32072 0.32357 0.065208 0.22476 -0.2199 0.026539 0.0028538 0.041076 -0.32573 -0.27263 0.15899 0.077745 0.16639 -0.041712 0.097799 0.12316 -0.11426 0.217 -0.035773 0.17591 0.11866 -0.13221 -0.17436 -0.061485 0.044833 
to 0.20885 0.2961 0.30101 0.24715 -0.18788 0.11865 -0.057343 -0.49052 0.11344 -0.53068 -0.19207 -0.10027 -0.42397 0.24871 0.26319 0.19951 -0.16222 -0.29663 -0.16734 0.43307 -0.087781 -0.18039 0.099179 -0.070454 -0.12955 0.085287 -0.065163 -0.17551 -0.15644 0.012961 -0.030028 0.14447 -0.092429 0.12705 0.053875 0.3677 0.088741 -0.072603 -0.20104 -0.0077462 -0.18194 0.027468 -0.18231 -0.32545 -0.2307 -0.14232 -0.3503 0.10288 0.058756 -0.2655 0.04192 -0.23045 0.19005 -0.26994 0.21083 0.22095 0.042425 -0.19747 0.51273 0.16206 0.050452 0.21179 -0.09868 0.12614 0.26584 -0.011905 -0.12871 0.023575 -0.21992 0.24819 0.30992 -0.063324 0.36178 0.17116 -0.60132 -0.25855 0.33925 0.14778 0.38314 0.20348 -0.19642 -0.11215 0.197 -0.36012 -0.15286 0.32266 0.14504 0.016109 -0.22099 0.033109 0.031812 -0.31154 0.2032 -0.15149 0.081139 -0.030316 0.075241 -0.27962 0.013186 -0.092236 
zero -0.023101 0.32481 -0.059964 0.15259 -0.057652 0.038074 0.02956 -0.35668 -0.12433 -0.46075 -0.32795 0.0012553 -0.22945 -0.020417 0.40162 0.16327 -0.21909 -0.34436 0.26577 0.11044 -0.0080315 -0.011833 0.1208 -0.13618 -0.18356 -0.13094 -0.14314 -0.29798 -0.028026 -0.063696 0.29893 0.084307 -0.1878 -0.0019651 -0.52317 0.41967 -0.24732 0.02968 -0.35817 0.21474 -0.21406 -0.029661 0.05504 -0.36524 -0.20144 0.12928 0.40947 0.2266 0.22145 -0.06432 -0.098211 -0.40504 0.083724 0.11337 0.31968 0.19766 0.32019 0.29787 0.45749 -0.25822 -0.47295 0.24261 -0.37012 -0.12515 0.24949 -0.10325 -0.18145 0.8148 -0.24936 0.25544 -0.16948 -0.33268 0.38375 0.29724 -0.27196 -0.37094 0.07715 0.16843 0.28208 -0.21586 -0.054866 -0.31278 0.4221 0.25965 0.12386 0.022181 -0.20289 -0.017346 0.20554 -0.4397 0.030716 -0.058709 0.022948 0.1021 0.16163 -0.02545 -0.22354 -0.17298 -0.32241 -0.15593 
nine -0.33003 0.19895 -0.06789 0.27144 -0.19251 0.048804 -0.050347 -0.42422 0.044185 -0.30763 -0.48775 -0.072592 -0.2078 0.014788 0.4433 -0.063934 -0.16502 -0.45825 -0.11927 -0.040952 -0.13997 -0.07755 0.16036 0.0086578 -0.3152 -0.11555 -0.13964 0.042289 -0.24878 0.022762 0.15512 0.081463 -0.25604 -0.12251 -0.4554 0.38143 -0.35044 0.068767 -0.17844 0.10184 -0.25611 0.091382 -0.029052 -0.29987 -0.041984 0.016166 0.33543 0.077451 0.19063 0.068702 -0.21677 -0.17791 0.22291 0.18087 0.41076 0.17618 0.18621 0.38061 0.53877 -0.044753 -0.21116 0.048988 -0.21442 -0.039068 0.23633 -0.33045 -0.28357 0.55962 -0.42948 0.39599 -0.16064 -0.41224 0.28933 -0.03652 -0.21737 -0.3437 0.13352 0.28626 0.31452 -0.16563 0.06715 -0.40123 0.37899 -0.014708 0.2703 0.10084 -0.38339 -0.053396 0.073259 -0.60218 0.19106 -0.083821 0.019178 0.28658 -0.016178 -0.13292 -0.36687 -0.23904 -0.21937 -0.22941 
two -0.13607 0.31638 -0.12771 0.24357 -0.1228 0.129 0.091553 -0.33192 -0.066794 -0.46593 -0.31413 0.049741 -0.25321 -0.084335 0.52634 0.015759 -0.18608 -0.32278 0.24835 0.07384 0.097577 -0.050669 0.059829 -0.032188 -0.21811 -0.13752 -0.23033 -0.36321 -0.036543 -0.2355 0.032638 0.12456 -0.13531 -0.14545 -0.51553 0.36788 -0.36414 -0.021212 -0.36705 0.14292 -0.067692 -0.064081 -0.022607 -0.28721 -0.34504 0.17429 0.41229 0.24658 0.14593 0.01395 -0.055085 -0.39337 0.1918 0.024422 0.31737 0.13507 0.27134 0.37998 0.54643 -0.26043 -0.36493 0.035291 -0.22178 -0.080716 0.2 -0.12931 -0.1593 0.68219 -0.17397 0.20509 -0.14764 -0.38197 0.31414 0.24572 -0.24335 -0.41173 0.085341 0.11835 0.18551 -0.17206 -0.10555 -0.24189 0.36162 0.093628 0.10857 0.060339 -0.28281 0.045372 0.19967 -0.5347 0.11059 -0.075846 0.044234 -0.0053935 0.1001 -0.025477 -0.16104 -0.044449 -0.29376 -0.23386 
is -0.12374 0.33639 0.58898 0.27858 -0.04123 0.37574 0.18792 -0.24606 0.0102 -0.40937 -0.24811 -0.25985 -0.14672 0.16753 0.50672 0.12142 -0.28371 -0.66229 -0.37603 0.14156 0.18103 -0.039008 0.21376 0.02066 -0.060092 -0.2561 -0.12072 -0.34645 -0.10327 -0.10564 -0.089589 0.23299 -0.24794 -0.11859 -0.0288 0.54266 -0.056683 -0.21528 -0.33802 0.18361 -0.10218 -0.078326 -0.131 0.1129 -0.29426 -0.13608 -0.2175 0.07091 0.055005 0.14019 -0.12194 -0.15115 -0.02044 0.20005 -0.059006 0.12979 0.096276 -0.013343 0.35014 0.055018 0.065972 0.25944 -0.1159 0.25935 0.16979 0.061971 0.28644 0.013501 -0.11868 -0.09455 -0.024184 -0.043131 0.30339 -0.17595 -0.65815 -0.34724 0.21181 0.15454 0.28924 -0.25251 -0.088678 0.081456 -0.070933 -0.46453 -0.22242 0.026436 0.20417 0.054615 -0.053579 0.12948 -0.081694 -0.18173 0.013296 -0.128 0.27946 0.076423 -0.15869 -0.2636 -0.2458 0.29074 
as -0.13492 0.2904 0.28501 0.23236 0.096614 0.16911 0.063418 -0.22102 0.12782 -0.27527 -0.1172 -0.34426 -0.083334 0.07769 0.28676 0.06973 -0.087419 -0.40972 -0.25715 0.18379 -0.10247 -0.12796 0.11992 -0.064945 -0.07917 -0.3405 -0.12114 -0.39198 -0.17361 -0.010026 0.026262 0.25777 -0.12102 -0.098022 0.11323 0.51051 -0.19786 -0.33931 -0.15867 -0.0064036 -0.063741 0.080971 -0.38108 0.010302 -0.13611 -0.15517 -0.1729 -0.015555 -0.033399 0.063142 0.014756 -0.19755 0.014233 -0.0042017 0.16483 -0.11563 0.15823 -0.105 0.38046 0.27177 0.1312 0.19318 0.02404 0.26369 0.45734 -0.10838 0.17391 0.072211 -0.22357 0.015401 0.30315 -0.1022 0.23562 0.13529 -0.47429 -0.64651 0.28133 0.28946 0.20229 -0.20376 0.033607 -0.052482 -0.08888 -0.37382 -0.16808 0.25485 0.054691 0.023788 -0.018843 -0.010165 0.10325 -0.29041 -0.060561 -0.065127 0.26422 0.0263 -0.12622 -0.29469 0.016262 0.089914 
eight -0.17686 0.3584 -0.16126 0.12523 -0.12904 -0.040768 0.21332 -0.34086 -0.023099 -0.30911 -0.37366 -0.022419 -0.10546 0.038426 0.42252 -0.099894 -0.17813 -0.39127 0.10323 0.15542 -0.1065 0.016408 0.17478 0.043304 -0.32252 -0.088932 -0.056092 -0.066922 -0.15094 0.026076 0.17545 0.15903 -0.20456 -0.04665 -0.56761 0.4084 -0.43167 0.056383 -0.28424 0.15519 -0.23311 0.04318 -0.07505 -0.31036 -0.20095 0.12532 0.29758 0.22048 0.30413 0.00371 -0.16535 -0.22338 0.22252 0.18255 0.31779 0.047687 0.18344 0.21707 0.64916 -0.21318 -0.27442 -0.05666 -0.36004 -0.12741 0.20055 -0.35692 -0.21272 0.63553 -0.2847 0.23659 -0.094158 -0.42453 0.33751 0.16827 -0.21841 -0.35082 0.02721 0.37155 0.53599 -0.1496 -0.11184 -0.33382 0.22868 -0.075733 0.088681 0.05018 -0.27956 0.080781 0.029674 -0.64648 0.069521 -0.01084 -0.017668 0.11278 0.26047 -0.26696 -0.28199 -0.22124 -0.27204 -0.25143 
for -0.22327 -0.010098 0.32218 0.33746 0.13534 0.095036 -0.065476 -0.22908 0.093578 -0.24258 0.042633 -0.18261 -0.018113 0.12334 0.43875 0.13218 -0.22244 -0.43529 -0.22415 0.40714 0.058061 0.10186 0.30207 0.12506 -0.14961 -0.062944 -0.016761 -0.10683 -0.20547 -0.058659 -0.19871 0.20682 -0.26095 -0.095665 -0.18028 0.59476 0.057928 -0.055604 -0.071349 0.16852 -0.185 0.16886 -0.13432 -0.16981 -0.070314 -0.044843 -0.10055 -0.12685 0.10537 -0.016412 0.19843 -0.16566 0.22507 0.19134 0.094831 0.2756 0.24394 -0.16665 0.46342 0.15509 0.010751 0.16569 -0.11679 0.2157 0.15821 -0.11032 0.071252 0.010385 -0.28543 0.05339 0.21964 -0.29632 0.39919 0.28147 -0.57449 -0.49361 0.32489 0.11498 0.10088 -0.24658 0.073403 -0.29774 0.16301 -0.24999 -0.36482 0.18889 -0.029565 0.11991 -0.15552 0.1062 0.19444 -0.3243 0.044292 -0.34492 0.11919 -0.070001 0.0087634 -0.39404 0.054516 0.11241 
s -0.1326 0.62088 0.29428 0.1972 0.013686 -0.013924 0.27279 -0.24315 -0.02706 -0.38366 -0.3763 -0.066449 -0.054199 0.1524 0.35746 0.12622 -0.27814 -0.28844 0.054332 0.22134 -0.10531 -0.032631 0.13357 -0.16087 -0.39367 -0.046558 -0.11306 -0.057543 -0.20322 0.089899 -0.090054 0.34134 -0.13647 -0.099334 -0.22562 0.36606 -0.11892 0.030847 -0.26522 0.056171 -0.15345 -0.04355 -0.36679 0.16112 -0.16661 -0.23409 0.042076 0.28254 0.12964 0.21332 -0.090139 -0.25547 -0.18162 0.13747 0.11857 0.1243 -0.14758 -0.031671 0.18805 0.045506 0.037113 0.048849 -0.21585 0.14751 0.27166 0.02187 -0.043717 0.3356 -0.23868 0.21326 0.011386 -0.173 0.22337 0.13345 -0.19226 -0.09614 0.2366 0.18368 0.24266 -0.15598 -0.20999 -0.30859 0.33977 -0.21217 0.17001 0.11543 -0.040449 0.11573 -0.084238 -0.13356 -0.10805 -0.15937 0.21433 0.19082 0.020878 0.10967 -0.067696 -0.37137 -0.055127 -0.08929 
five -0.14966 0.23625 -0.10877 0.30438 -0.21653 0.067979 0.070674 -0.41479 0.029577 -0.45677 -0.31926 0.023316 -0.09666 -0.037204 0.38566 0.18555 -0.20882 -0.47559 0.12508 0.079493 0.16097 0.15925 0.18563 0.06552 -0.19725 -0.029171 -0.19274 -0.27034 -0.12776 -0.0095642 0.13576 0.15205 -0.22373 0.043903 -0.58102 0.37574 -0.38714 -0.090129 -0.24022 0.096167 -0.20486 0.060096 0.088515 -0.41085 -0.3153 0.18665 0.28287 0.12551 0.25052 0.0088977 -0.088227 -0.32186 0.31398 0.20645 0.36995 0.056686 0.28979 0.25726 0.73858 -0.23828 -0.30898 -0.021265 -0.41059 -0.175 0.23377 -0.28457 -0.3686 0.68868 -0.34675 0.09617 -0.17672 -0.42364 0.34015 0.040971 -0.30529 -0.4812 0.076513 0.30414 0.38476 -0.17239 -0.10659 -0.3987 0.30842 0.049241 0.094502 0.078336 -0.40954 0.18592 0.16383 -0.48703 0.067333 -0.073805 -0.0089303 -0.075969 0.1857 -0.13674 -0.24825 -0.2056 -0.27839 -0.18209 
three -0.23274 0.28263 -0.2261 0.23939 -0.13421 0.15198 0.11995 -0.38329 -0.086227 -0.40652 -0.25353 0.022537 -0.16808 -0.12519 0.42293 0.14701 -0.14447 -0.49393 0.17525 0.14938 0.061064 -0.0086962 0.017282 0.11633 -0.22076 -0.12149 -0.28195 -0.26768 -0.10522 -0.038761 0.129 0.13893 -0.22865 -0.077337 -0.51232 0.36694 -0.35718 -0.093101 -0.33649 0.15632 -0.098045 0.083714 -0.0018164 -0.33841 -0.41471 0.23487 0.26936 0.24134 0.22265 -0.029765 -0.0561 -0.29229 0.34825 0.11479 0.29832 0.081351 0.22656 0.32914 0.60691 -0.26526 -0.2643 -0.061909 -0.2707 -0.13823 0.19041 -0.19251 -0.26234 0.66963 -0.26967 0.060747 -0.11255 -0.39104 0.32279 0.15911 -0.25767 -0.34843 0.16218 0.32791 0.35923 -0.14508 -0.031126 -0.2869 0.2955 0.18348 0.045265 0.14832 -0.37177 0.066718 0.1351 -0.55559 0.072254 -0.021085 0.024491 -0.01644 0.21279 -0.0016296 -0.25671 -0.067388 -0.292 -0.17839 
was -0.17131 0.23819 0.31241 0.052954 0.027169 -0.027539 0.16488 0.023873 -0.18128 -0.22751 -0.46717 -0.24411 -0.28051 0.31651 0.29401 -0.13832 -0.16233 -0.29692 -0.25095 0.27271 -0.12423 -0.18335 0.20684 0.082103 -0.3334 -0.18083 -0.049588 -0.17929 -0.39254 0.2183 0.0027393 0.086958 -0.021161 -0.17205 -0.09546 0.060957 -0.20177 -0.047325 -0.35397 0.24428 -0.45594 0.19408 -0.04102 -0.033663 -0.26659 -0.05937 0.15331 0.1269 0.056979 0.04854 -0.12893 0.039209 -0.22545 0.13455 -0.017003 -0.10279 -0.11033 0.10508 0.43613 0.080519 0.3561 0.045195 -0.20248 0.069881 0.19635 0.028145 0.084205 0.18489 -0.43136 0.31603 0.19888 -0.16709 0.066304 0.035054 -0.58648 -0.36479 0.29517 0.27238 0.29394 -0.13223 -0.15086 -0.20874 0.095579 -0.51074 0.0080809 0.068731 0.061643 -0.10898 -0.19131 -0.1835 0.11702 -0.20727 -0.040413 -0.034239 0.23513 -0.03058 -0.23245 -0.25412 -0.1871 0.085351 
by 0.12597 0.40118 0.26819 0.11324 -0.007716 0.13462 0.31508 -0.098216 -0.18251 -0.29959 -0.084817 -0.14187 -0.085072 0.068153 0.22902 -0.12378 -0.11584 -0.28032 -0.1251 0.16052 -0.057033 -0.016199 0.083349 -0.33085 -0.18974 -0.16558 -0.013715 -0.23887 -0.12834 0.0076939 -0.18687 0.29146 -0.020936 -0.10947 -0.078836 0.13911 -0.107 -0.067879 -0.31665 0.14773 -0.025941 0.054928 -0.14056 -0.082667 -0.29827 -0.078552 0.098332 0.096754 0.1288 -0.28427 -0.056441 -0.23405 -0.15673 0.021105 0.052328 0.046165 0.082688 0.23093 0.26783 0.031643 0.286 0.20939 -0.17633 0.25078 0.22777 0.13146 0.0232 -0.038286 -0.35122 0.4227 0.059665 -0.23786 0.20799 0.10623 -0.33513 -0.31822 0.19076 0.12484 0.30299 -0.14245 0.28504 -0.03743 0.16558 -0.43965 -0.021073 0.057416 -0.13107 -0.22303 0.051903 -0.40997 0.1591 -0.11721 0.01086 -0.11746 0.51679 0.1155 -0.24573 -0.17234 -0.066158 -0.15264 
that 0.11975 0.31388 0.60715 0.22481 -0.17337 0.29208 0.029259 -0.2727 0.28205 -0.27888 -0.14383 0.12537 -0.29876 0.051501 0.43247 0.058605 -0.068681 -0.38082 0.085476 0.40084 -0.03734 0.0044254 0.12253 -0.12446 -0.1301 -0.082388 0.012888 -0.17607 -0.1936 -0.029212 0.10481 0.016171 -0.21436 -0.1802 0.10585 -0.019922 -0.022272 0.099263 -0.23381 0.011169 -0.17086 0.17617 -0.29457 0.058503 -0.34245 -0.12105 -0.16228 0.13505 -0.080782 -0.082057 -0.16994 -0.13715 0.044518 0.022313 -0.037017 0.22471 -0.18013 0.090581 0.3492 0.046833 0.10669 0.23806 -0.10456 0.15968 0.31519 -0.065227 0.13485 -0.1297 -0.15759 0.046854 -0.021801 -0.090589 0.20991 0.35702 -0.55635 -0.35912 0.097982 0.26405 0.34235 -0.19427 -0.020177 0.070735 0.15389 -0.22007 -0.11805 0.23934 0.22342 0.08209 -0.12156 0.074742 0.23404 -0.36315 0.18244 -0.12774 0.25467 0.1632 -0.022237 -0.19989 -0.024819 0.031493 
four -0.25044 0.27894 -0.14359 0.21951 -0.088003 0.12007 0.10289 -0.3919 -0.0021298 -0.4123 -0.21158 0.033094 -0.25377 -0.063426 0.46364 0.1181 -0.13908 -0.42536 0.20468 0.089955 0.0091141 -0.01503 0.06466 -0.0020994 -0.20052 -0.027627 -0.26975 -0.36394 -0.13242 -0.027061 0.090245 0.1967 -0.15875 -0.074393 -0.64579 0.35859 -0.3104 -0.10619 -0.37314 0.14987 -0.19365 0.065146 0.0086326 -0.39333 -0.30692 0.29853 0.34784 0.21506 0.16848 -0.001289 0.0093225 -0.31131 0.24114 0.13355 0.38723 0.040942 0.29258 0.33913 0.63677 -0.16094 -0.24235 -0.051417 -0.31661 -0.21281 0.15425 -0.18103 -0.29017 0.6692 -0.3476 0.089139 -0.15251 -0.44386 0.36211 0.084509 -0.22149 -0.4531 0.048031 0.23593 0.39348 -0.07482 -0.020396 -0.29968 0.3837 0.12095 0.063062 0.07166 -0.37819 0.17831 0.11678 -0.53236 0.055487 -0.05927 0.023599 -0.01529 0.24153 -0.095617 -0.2653 -0.10882 -0.30053 -0.24872 
six -0.23541 0.3748 -0.16813 0.14189 -0.1449 0.10829 0.19789 -0.36612 -0.04593 -0.40683 -0.24724 0.040326 -0.10757 -0.087324 0.44137 0.15165 -0.11184 -0.33815 0.14827 0.050698 -0.061133 -0.023895 0.13931 -0.075166 -0.20775 -0.070305 -0.24014 -0.34368 -0.060335 -0.06226 0.21888 0.13802 -0.16563 -0.012477 -0.55645 0.2371 -0.34643 -0.1127 -0.38079 0.19894 -0.2255 0.088401 0.034084 -0.37324 -0.31013 0.29036 0.35821 0.17976 0.24907 0.08741 -0.050112 -0.27239 0.2809 0.18079 0.30999 0.030713 0.19867 0.30524 0.54303 -0.21802 -0.29585 -0.070176 -0.307 -0.070921 0.20395 -0.13933 -0.13232 0.75182 -0.26851 0.1357 -0.14069 -0.44319 0.29812 0.075528 -0.16952 -0.30581 -0.011694 0.29532 0.46972 -0.23463 -0.20225 -0.27314 0.33768 0.11596 0.072418 0.17349 -0.2977 0.15227 0.073679 -0.6854 0.1545 0.065619 0.067648 0.011669 0.24189 -0.11437 -0.27049 -0.15701 -0.27666 -0.2766 
seven -0.18069 0.32172 -0.19136 0.096242 -0.19576 0.030335 0.064737 -0.36113 0.036056 -0.35726 -0.37419 -0.061886 -0.19532 -0.021353 0.38708 0.018784 -0.16113 -0.51105 0.1215 0.045181 0.0065091 0.021174 0.099913 0.04875 -0.22415 -0.036004 -0.19688 -0.20605 -0.12427 0.026201 0.11873 0.12758 -0.27039 -0.033631 -0.49505 0.36727 -0.50881 -0.056489 -0.27926 0.14001 -0.23526 0.18006 0.076535 -0.32084 -0.31868 0.1552 0.23877 0.13114 0.26009 0.071102 -0.078476 -0.25805 0.35518 0.33679 0.43415 0.02097 0.1923 0.25201 0.65435 -0.21707 -0.25934 -0.12578 -0.32006 -0.15538 0.20382 -0.31891 -0.2592 0.67526 -0.42871 0.26744 -0.17223 -0.44493 0.33667 0.087363 -0.13876 -0.45035 0.11096 0.34754 0.44108 -0.20821 0.015879 -0.34189 0.35642 0.011288 0.086045 0.11071 -0.37471 0.096392 0.061101 -0.48097 0.10075 -0.073124 -0.018845 0.01255 0.18894 -0.15193 -0.25574 -0.2925 -0.33371 -0.35702 
with -0.17782 0.070883 0.1388 0.23465 -0.16344 0.069256 0.033998 -0.27489 -0.0047565 -0.36783 0.020835 0.10684 -0.17751 0.031823 0.38917 0.11181 -0.11962 -0.30626 -0.18028 0.45124 0.0056449 -0.0070276 -0.021182 -0.089056 -0.17271 -0.010081 -0.31848 -0.25297 -0.059928 -0.30099 -0.14185 0.63291 -0.061074 -0.050108 -0.21395 0.2907 -0.18514 -0.26916 -0.22407 0.082899 -0.14956 -0.25967 -0.037637 -0.19141 -0.075052 -0.037394 -0.13171 0.06256 0.038055 -0.11051 -0.11879 -0.18281 0.051924 0.13385 0.026693 0.057553 -0.13774 0.042581 0.52446 -0.045007 -0.035701 0.15252 0.084258 0.22679 0.30705 -0.027087 0.093753 0.1201 -0.24528 0.071431 0.036251 -0.23535 0.27948 0.245 -0.35809 -0.37282 0.19213 0.067509 0.17646 -0.039273 0.1561 -0.25714 0.1764 -0.35155 -0.13849 0.27948 -0.0013041 -0.15707 -0.23084 -0.10529 0.059469 -0.28852 -0.16427 0.07226 0.17596 0.26405 -0.15298 -0.3411 -0.056746 -0.018846 
on -0.46652 -0.13416 0.0037849 0.39327 -0.2716 0.10263 -0.0017562 -0.10109 0.014171 -0.50099 -0.14867 -0.12018 -0.015958 0.20981 0.30039 0.36629 -0.15227 -0.40367 -0.31198 0.39146 0.24615 -0.03273 0.11591 -0.03661 -0.27765 -0.022261 -0.30238 -0.18445 -0.35948 -0.16553 0.0012542 0.36874 -0.49226 -0.14023 -0.36825 0.2756 -0.063995 0.33635 -0.0031262 -0.10372 -0.086697 -0.051177 -0.038546 -0.46373 -0.58592 -0.26469 -0.031362 -0.085982 -0.16663 -0.17104 0.16176 0.14028 0.16858 0.22497 0.36713 0.26733 -0.11215 0.049838 0.10062 -0.0090359 0.14806 -0.002019 -0.15832 -0.26638 0.35957 -0.011333 -0.10371 -0.19184 -0.36275 0.21238 0.020033 -0.54808 0.20386 0.27531 -0.41583 -0.34992 0.4842 0.31208 0.33602 -0.10253 0.05907 -0.18455 0.3242 -0.22804 -0.25789 -0.17182 0.013972 -0.13337 -0.12394 0.18414 0.46334 -0.3141 0.019311 -0.18018 -0.1639 0.12677 0.00073712 -0.45424 -0.19176 0.059641 
are 0.037346 0.13296 0.25968 0.21315 -0.11743 0.13874 0.060111 -0.5609 0.18339 -0.43251 0.17986 -0.26921 -0.16931 -0.1313 0.42556 0.21223 0.078754 -0.47716 -0.19728 0.34387 0.45022 0.14742 -0.046743 0.022371 0.073566 -0.12123 -0.10038 -0.6344 -0.21537 -0.38185 0.029298 0.43232 -0.2647 -0.30646 0.0048826 0.63955 -0.20885 -0.45478 -0.08825 -0.40617 -0.082445 -0.027261 -0.26128 -0.1037 -0.28317 -0.057134 -0.42892 -0.22719 0.020503 -0.090261 -0.058511 -0.13551 0.06318 0.19159 -0.082945 0.16633 0.050099 0.012704 0.48663 0.061327 0.018861 0.54059 -0.099612 0.041161 0.043047 -0.21733 0.12756 -0.13488 -0.16292 0.00056023 0.32679 -0.20164 0.23399 0.35046 -0.60766 -0.68235 0.19232 0.21082 0.086913 -0.39947 0.37118 -0.22505 0.087396 -0.44383 -0.28136 0.28329 0.12474 -0.14982 -0.074163 -0.11823 0.071746 -0.29909 -0.20346 -0.21843 0.37445 0.13325 -0.055416 -0.1266 -0.12599 0.25942 
it 0.17242 0.18395 0.42272 0.3201 -0.050274 0.33272 0.062571 -0.14968 0.2432 -0.32368 -0.30558 0.020582 -0.34993 0.12669 0.44855 -0.14939 -0.13095 -0.36678 -0.045188 0.12491 -0.079483 -0.096443 0.31537 -0.14856 -0.080846 -0.0045746 -0.013845 -0.31337 -0.12877 0.033493 0.066082 -0.0014147 -0.31925 -0.24029 0.10511 0.18146 -0.14896 -0.09565 -0.29416 0.22334 -0.24013 -0.09571 -0.11122 0.073578 -0.32865 -0.06385 -0.040081 0.14577 0.10725 -0.070078 -0.13576 -0.23057 -0.19457 -0.041524 0.096519 0.062328 -0.08115 0.071199 0.22846 0.14031 -0.060142 0.37979 -0.055871 0.074439 0.25321 -0.024907 0.16912 -0.077788 0.034523 -0.011152 0.008689 -0.081951 0.23514 -0.0090454 -0.70356 -0.31143 0.23287 0.18735 0.34819 -0.057298 -0.17636 0.096918 0.053925 -0.3582 -0.11649 0.23157 0.30533 0.09226 -0.21326 -0.067152 0.080828 -0.35284 0.026424 -0.10428 0.42151 -0.037662 -0.21964 -0.12847 -0.015085 0.17379 
from 0.07764 0.20631 0.058263 0.27448 -0.086661 0.10655 -0.0074878 -0.221 -0.039471 -0.53815 0.047821 -0.082066 -0.067474 0.16419 0.45063 0.26575 -0.31644 -0.19346 -0.23742 0.17324 0.018039 -0.09545 0.21573 -0.10307 -0.049388 -0.18648 -0.058831 -0.1896 -0.33573 0.010236 0.13474 0.081187 -0.080944 0.096621 -0.093618 0.23859 -0.13197 -0.11796 -0.1937 0.1506 -0.28049 -0.056551 -0.064675 -0.26601 -0.39828 -0.37948 -0.077576 0.41966 0.018143 -0.27207 -0.053832 -0.27693 0.0037286 -0.12428 0.10835 0.2244 -0.1269 -0.044392 0.21704 0.23345 -0.011467 -0.037271 -0.021021 0.076415 0.14868 0.067189 0.12775 -0.049552 -0.27838 0.20062 0.039526 0.020076 0.40876 0.35854 -0.30411 -0.39541 0.039595 0.0057016 0.21189 -0.089249 -0.12159 -0.34486 0.26968 -0.35808 -0.098518 0.23602 0.092334 -0.03788 -0.043527 -0.39253 0.07549 0.050476 -0.19543 -0.038944 0.29396 0.31324 -0.029797 -0.13676 -0.23858 -0.040018 
or -0.14227 0.088342 0.23418 0.25553 -0.27578 0.25791 -0.11673 -0.47975 -0.0019322 -0.56543 0.14342 -0.13878 0.05834 0.07326 0.54287 0.082986 -0.0080852 -0.35683 -0.10287 0.31777 0.17798 -0.083651 0.14964 0.022356 0.20245 -0.10609 -0.18434 -0.32454 -0.34674 -0.25734 -0.074637 0.37847 -0.11124 -0.0081361 -0.036474 0.5122 0.065539 -0.22187 -0.11201 -0.015908 -0.11805 -0.049139 -0.071245 -0.2287 -0.15197 -0.16435 -0.39568 0.021574 0.028893 -0.20123 -0.047868 -0.15037 0.13042 0.039059 0.051562 0.21289 0.26326 0.028185 0.66946 0.29459 0.20261 0.28832 -0.088841 0.25676 0.22944 -0.21398 0.27354 -0.082437 -0.11371 -0.17513 0.040036 -0.20508 0.22628 0.026747 -0.33355 -0.39598 0.11804 0.26631 0.24005 -0.15575 -0.027249 -0.27082 0.056461 -0.19885 -0.26956 0.20534 0.30593 0.086675 0.058171 -0.056897 -0.0090478 -0.11688 -0.091947 -0.0091289 0.40452 -0.012034 0.054179 -0.21433 -0.20468 0.031871 
his -0.28355 0.024592 0.20834 0.28301 0.044802 -0.10875 0.30571 -0.11448 0.064884 -0.077207 -0.29015 0.19323 -0.091691 0.31901 0.29826 0.01902 -0.14257 -0.15965 -0.19714 0.60839 0.020042 -0.22821 0.13813 0.15362 -0.50709 -0.0054151 -0.14514 -0.024855 -0.29567 0.34264 -0.12586 0.26656 -0.33939 0.054736 0.078942 0.14014 -0.25632 0.017537 -0.22435 0.0043836 -0.46091 0.1786 -0.25157 -0.26062 -0.16865 -0.35357 -0.31266 -0.24623 0.21161 -0.11165 0.0019569 0.05188 -0.20171 0.22698 -0.011105 -0.097626 -0.35029 -0.41049 0.56574 0.51373 0.12071 -0.13921 -0.1795 0.060283 0.15105 -0.090159 0.0040751 0.1846 -0.63326 0.23531 0.16064 -0.31229 0.20778 0.33021 -0.1379 0.0023953 0.48532 0.45189 0.074327 -0.077004 -0.20213 -0.40858 0.25477 -0.36477 -0.14356 0.35518 0.039623 0.35454 -0.041737 0.043446 0.20039 -0.32946 0.13038 0.031016 -0.032863 -0.15104 -0.01205 -0.44012 -0.032827 -0.29207 
an -0.061185 0.29503 0.42675 0.39489 0.063931 0.37308 -0.18508 -0.15285 0.013565 -0.35064 -0.31272 -0.11312 -0.049128 0.2819 0.52802 0.1817 -0.50139 -0.69349 -0.42144 0.25172 0.079441 -0.12944 0.35686 0.06845 -0.095463 -0.11611 0.0066574 -0.077954 -0.19692 -0.030661 -0.28907 0.2451 -0.22932 0.17704 0.062745 0.38267 -0.10072 0.083931 -0.098323 0.075778 -0.2116 0.096192 -0.11065 -0.20385 -0.072858 -0.32495 -0.21259 -0.013234 0.033196 -0.040729 -0.062193 -0.095424 0.32893 0.15259 -0.06954 0.20403 0.10669 0.09741 0.61847 0.20539 0.090022 -0.10549 -0.28149 0.1186 0.27739 -0.30126 0.036782 -0.029467 -0.44606 0.10268 0.028873 -0.18069 0.30438 0.035106 -0.6886 -0.2968 0.3911 0.14053 0.39891 -0.21597 0.12803 -0.30373 -0.12032 -0.20589 -0.29968 -0.068087 -0.050638 0.27527 -0.058215 0.26833 -0.084694 -0.33512 0.24758 -0.29545 0.16145 0.032227 -0.010155 -0.32031 -0.217 0.13306 
be 0.041532 -0.027046 0.57694 0.34347 -0.0038254 0.31701 0.12695 -0.3185 0.24806 -0.5492 -0.045743 -0.1703 -0.30158 0.20967 0.16113 -0.023055 -0.19793 -0.63222 -0.17098 0.29449 0.11747 -0.13632 0.0076346 -0.035475 0.046566 -0.20849 0.071153 -0.30756 -0.081771 -0.15214 -0.11991 0.012839 -0.25778 -0.38194 0.26611 0.39213 -0.1882 -0.12225 -0.27895 -0.0036805 -0.22725 -0.14645 -0.22117 -0.23445 -0.49859 -0.18743 -0.12666 -0.23177 0.045604 -0.041313 -0.090427 -0.0059645 0.0039034 -0.054529 0.18835 0.093425 0.174 0.19221 0.54397 0.12007 0.17651 0.69884 -0.29725 0.33665 0.094863 -0.14263 0.22985 -0.16973 -0.34774 -0.034118 0.22904 -0.078036 0.15504 0.23357 -0.67394 -0.65589 0.23999 0.20929 0.35911 -0.28443 0.0021472 -0.025969 -0.01783 -0.48377 -0.0078026 0.36577 0.31762 -0.23467 -0.16023 0.049719 0.044169 -0.36338 -0.0017827 -0.21734 0.55741 -0.014246 -0.033651 -0.16481 -0.063146 0.39609 
this -0.17023 0.1886 0.57473 0.21411 -0.026974 0.27039 -0.057628 -0.1356 0.027196 -0.42085 -0.18065 0.050685 -0.04294 0.072532 0.3092 0.10625 -0.19371 -0.31717 -0.0070376 0.33482 -0.16402 -0.053126 0.17944 -0.13579 -0.05684 -0.10024 -0.059174 -0.10639 -0.076244 -0.1175 -0.095053 0.00045588 -0.15954 -0.052366 0.23106 0.20874 -0.10531 0.15965 -0.37587 0.15356 -0.078122 0.1117 -0.082727 -0.043241 -0.23026 -0.095251 -0.1003 0.17061 0.03408 -0.05458 -0.044647 -0.073842 0.066806 0.06644 0.040443 0.12959 -0.014062 -0.11333 0.40091 0.082079 0.04137 0.14525 -0.13879 0.12378 0.30025 -0.064115 0.022316 -0.15982 0.054746 0.055951 0.033701 -0.10707 0.25136 0.17311 -0.76844 -0.34841 0.32011 0.13751 0.33609 -0.10013 -0.16378 0.020332 0.064097 -0.23557 -0.23186 0.13955 0.065869 0.1564 -0.19297 0.21511 0.12435 -0.41013 0.15022 -0.23047 0.16822 0.039827 -0.098865 -0.27732 -0.22198 -0.076137 
which 0.020186 0.17429 0.20422 0.13459 -0.047702 0.26583 0.050808 -0.15721 0.0065765 -0.407 -0.076539 -0.063541 -0.19912 0.050118 0.4826 0.051421 -0.2613 -0.24738 -0.23515 0.19642 -0.076678 -0.16205 0.23306 -0.13836 -0.081132 -0.19433 -0.092151 -0.28669 -0.28762 -0.099148 -0.15072 0.18292 -0.24126 -0.11004 0.18025 0.14468 -0.17112 -0.13083 -0.19983 0.044263 -0.070329 -0.0026756 -0.18802 -0.23372 -0.22744 -0.086779 -0.17285 0.19186 0.16407 -0.12143 -0.15987 -0.12369 0.040691 -0.0018 -0.0067108 0.19371 0.056855 0.15392 0.27924 0.10591 0.056098 0.22412 -0.105 0.007061 0.19699 -0.1574 0.11614 -0.042963 -0.072681 0.076545 -0.068633 -0.14461 0.35747 0.25711 -0.50924 -0.35637 0.23344 0.1503 0.34174 -0.24175 -0.059031 0.04452 0.033313 -0.35828 -0.17275 0.21956 0.12966 0.01584 -0.11717 0.025451 0.17656 -0.24038 0.11137 -0.16061 0.39316 0.092962 -0.23006 -0.25654 -0.088167 -0.047463 
at -0.075301 0.12382 0.003662 0.48139 0.030636 0.055297 0.087345 -0.0033126 -0.15589 -0.32937 -0.27098 0.020861 -0.17676 0.048491 0.61074 0.22588 -0.1774 -0.3271 -0.1336 0.433 0.10622 0.046176 0.098973 0.078782 -0.44042 0.10426 -0.056652 -0.22667 -0.074304 -0.16884 0.1062 0.049386 0.019703 -0.22004 -0.35985 0.20133 -0.010317 -0.27402 -0.52521 0.34181 -0.33162 0.007457 0.07102 -0.56145 -0.42387 -0.074413 0.19654 0.1237 0.25537 -0.25885 -0.00072128 -0.03519 0.068282 0.11626 -0.062797 -0.046483 0.011595 -0.21606 0.11468 0.29715 -0.0016729 0.17609 -0.15469 -0.14171 0.063425 -0.13538 -0.071861 0.25598 -0.061069 0.10612 -0.048864 0.027709 0.36878 0.14487 -0.3964 -0.086713 0.24685 0.32142 0.39991 -0.16186 -0.058053 -0.2343 0.17587 -0.138 0.084885 0.13876 0.15664 0.071035 -0.070039 -0.021635 0.041891 -0.072399 0.077971 0.14254 0.1944 0.14634 -0.24617 -0.12822 -0.17627 0.32833 
he 0.035232 -0.002426 0.33407 0.3619 -0.042059 0.29523 0.27267 -0.025132 0.20001 -0.0036106 -0.38637 0.082087 -0.46015 0.41533 0.38717 -0.018973 -0.17715 -0.13374 -0.08579 0.24046 0.013204 -0.14069 0.078629 0.069347 -0.45709 -0.012616 -0.21339 -0.128 -0.45969 0.29402 0.13846 0.021646 -0.33804 -0.036681 -0.0098947 -0.26903 -0.13141 0.0032326 -0.24002 0.27545 -0.42704 0.30997 -0.16483 -0.357 -0.13137 -0.018322 -0.10476 -0.22412 0.22162 -0.21271 -0.045558 0.14653 -0.26752 0.20036 0.087097 -0.11958 -0.32587 -0.27851 0.37848 0.34763 0.41084 -0.072233 -0.10666 0.14327 0.15741 -0.11482 0.28381 0.032648 -0.56566 0.078676 0.065038 -0.19867 0.16062 0.3696 -0.35981 -0.10516 0.24881 0.46977 0.26227 -0.013797 -0.051675 -0.26518 0.15473 -0.3438 -0.071615 0.31705 0.20744 0.05778 -0.061145 -0.031257 0.30027 -0.41667 0.08705 -0.061707 0.17867 -0.032832 -0.2068 -0.22209 -0.0053236 0.012894 
also 0.070867 0.47475 0.26442 0.19131 -0.0025462 0.26856 -0.013734 -0.28805 -0.1685 -0.32755 0.056993 -0.058606 -0.17437 0.058687 0.51238 0.15939 -0.077739 -0.16475 0.020428 0.28694 0.0068443 -0.016579 0.21255 -0.25814 -0.060581 -0.27677 -0.11025 -0.31765 -0.18589 -0.2012 0.065559 0.034183 -0.20769 -0.13911 0.004399 0.38982 -0.21768 -0.24276 -0.079013 0.20746 -0.032254 -0.034045 -0.40756 -0.015367 0.046931 -0.035719 -0.10694 0.088667 0.18378 -0.14567 -0.079878 -0.20823 -0.05886 0.020696 0.064753 0.1042 0.18144 -0.087303 0.1032 -0.019902 0.15679 0.13702 -0.04406 0.31575 0.22494 0.028569 0.11227 0.014318 -0.088777 0.17171 0.14142 -0.16525 0.27756 0.085903 -0.51469 -0.42928 0.09529 0.03767 0.35213 -0.25497 0.0018112 -0.1343 0.11187 -0.15633 -0.083682 0.27267 0.055759 -0.0080826 0.064552 -0.13532 0.069584 -0.32711 0.085909 -0.22401 0.12998 0.14753 -0.35322 -0.18266 -0.078999 0.10235 
not 0.049773 0.27939 0.36867 0.17881 -0.36183 0.15386 0.052618 -0.57963 0.33625 -0.39633 -0.082863 -0.02143 -0.34117 -0.083407 0.41663 -0.16056 0.14609 -0.19812 0.016614 0.44011 -0.055331 -0.018344 0.085098 0.04864 -0.027219 -0.18797 -0.15416 -0.31778 -0.28033 -0.12245 0.053535 -0.073567 -0.20079 -0.26291 -0.019636 0.18071 -0.11144 -0.029594 -0.315 0.0083039 -0.32426 0.09669 -0.34158 0.066571 -0.28734 0.1492 -0.11349 -0.020901 -0.091161 -0.081148 -0.14888 -0.33186 -0.10383 0.0087149 0.066224 0.2113 -0.13696 -0.059796 0.61105 0.063941 0.13261 0.49884 -0.0014277 0.32846 0.12613 -0.1465 0.21067 -0.22826 0.23755 0.05299 0.13569 -0.11732 0.13344 0.035285 -0.65837 -0.24749 0.085918 0.16746 0.38888 0.013944 -0.10493 0.087884 -0.10938 -0.32902 -0.11295 0.40642 0.51841 -0.090054 -0.10314 0.0022282 0.17004 -0.31631 0.092473 -0.12902 0.33108 -0.11557 -0.086455 -0.16643 0.021346 0.10529 
have 0.23606 0.39687 0.42527 0.34419 0.012728 -0.038943 0.071761 -0.31386 0.19989 -0.25562 0.030063 -0.018742 -0.28604 0.14577 0.27494 0.14552 -0.024514 -0.26632 0.12492 0.53298 0.11874 -0.019982 0.13464 -0.12414 -0.061704 -0.033162 -0.13553 -0.49254 -0.3061 -0.28416 0.045316 0.066812 -0.14099 -0.30725 0.23921 0.20066 -0.13438 -0.30896 -0.31063 -0.088127 -0.24613 -0.02342 -0.2463 -0.17475 -0.23202 0.086166 -0.22711 -0.23347 0.080989 -0.063624 -0.31375 -0.094649 -0.12898 -0.13978 -0.11843 0.14773 0.11074 0.14391 0.29817 -0.25366 -0.082043 0.59658 -0.18576 0.14468 0.31846 -0.032838 0.1204 -0.13061 -0.15554 0.23923 0.3026 -0.13733 0.29068 0.26209 -0.5296 -0.5492 0.077912 0.16455 0.27202 -0.49175 0.1182 -0.21713 0.19489 -0.27052 0.12015 0.56611 0.21242 -0.34319 -0.2347 -0.28745 0.25312 -0.30732 -0.14971 -0.09179 0.40183 0.30688 -0.046884 -0.46584 -0.010873 0.27909 
were 0.091322 0.094308 0.031278 -0.077689 0.090347 -0.17996 0.17495 -0.27646 -0.13467 -0.087769 -0.096131 -0.33761 -0.03146 0.063395 0.16272 0.017967 0.10122 -0.20909 -0.10155 0.30811 -0.0058573 0.18083 -0.24683 0.022815 -0.21062 -0.062551 0.014025 -0.45582 -0.43594 -0.11423 0.093691 0.27622 -0.019843 -0.24218 -0.051546 0.16069 -0.30535 -0.051957 -0.34827 -0.18128 -0.42337 0.19885 -0.15136 -0.26036 -0.28484 0.1661 -0.11051 -0.13043 -0.00069079 -0.1528 -0.12654 -0.15267 -0.14168 0.052177 0.014965 -0.13351 -0.10081 0.19948 0.38388 0.0037272 0.12307 0.52051 -0.11124 0.030763 0.086359 -0.0071778 -0.023599 0.055886 -0.3751 0.38183 0.35561 -0.40271 0.075221 0.4811 -0.49317 -0.47841 0.21739 0.22731 0.27922 -0.33578 0.33844 -0.30466 0.16301 -0.33926 -0.099646 0.21034 0.19496 -0.23697 -0.15534 -0.32018 0.28928 -0.34503 -0.21333 -0.01545 0.53783 0.12497 -0.090914 -0.28969 0.02528 0.098905 
has 0.12052 0.36294 0.58344 0.27424 0.15705 0.01873 0.03416 -0.094902 -0.0072802 -0.30272 -0.18087 -0.12033 -0.40975 0.22848 0.43824 0.053947 -0.19492 -0.52557 -0.19651 0.31956 0.12393 -0.11168 0.40425 -0.21307 -0.17456 -0.19665 -0.058461 -0.25643 -0.36204 -0.27966 -0.12429 0.11901 -0.29682 -0.17908 0.034112 0.23498 0.006715 -0.33035 -0.30163 0.36157 -0.31133 -0.068141 -0.1209 0.13112 -0.10671 -0.13342 -0.050198 0.028916 0.12352 0.16529 -0.23222 -0.043187 -0.31397 0.052663 -0.21107 0.20626 0.041193 0.011254 0.34698 -0.14102 -0.15078 0.4705 -0.22421 0.20321 0.32693 0.24986 0.1678 0.064062 -0.083005 0.35627 -0.090955 -0.033183 0.3536 -0.13167 -0.63169 -0.25768 0.089059 0.055767 0.13965 -0.41485 -0.10323 -0.22619 0.078559 -0.34511 -0.005663 0.30298 -0.071645 -0.38063 -0.2273 -0.21161 0.13004 -0.19019 -0.094968 -0.11906 0.13432 0.38744 -0.25229 -0.25964 0.017755 0.12047 
but -0.00068556 0.22007 0.030428 0.19075 -0.18254 0.11687 0.19863 -0.22435 0.23858 -0.27058 -0.12599 -0.0013282 -0.41299 0.11598 0.25935 0.014057 -0.10891 -0.11237 0.050973 0.22284 -0.067238 -0.081049 0.14012 -0.023421 -0.13486 -0.070848 -0.19607 -0.29096 -0.34145 -0.14154 -0.063037 0.1477 -0.17258 -0.21766 0.098733 0.1845 -0.083359 -0.12097 -0.42457 0.094234 -0.46078 -0.060604 -0.1854 0.014726 -0.20502 0.089752 -0.19604 0.040271 0.042375 0.0089898 -0.16781 -0.34249 -0.25569 0.015312 -0.13883 0.066804 -0.10599 -0.11082 0.40752 0.021019 -0.061327 0.28219 -0.074014 0.25382 0.13692 -0.023334 0.10023 -0.032659 -0.0049762 0.12178 0.16143 -0.076221 0.3169 0.0036644 -0.55148 -0.28527 0.14587 0.099033 0.206 -0.059394 -0.19601 -0.086998 -0.056419 -0.46969 -0.17283 0.33587 0.38162 -0.074344 -0.2062 -0.17841 0.18795 -0.23298 -0.025161 -0.030295 0.39167 0.10729 -0.15595 -0.17386 -0.069173 0.061775 
other -0.11831 0.1931 0.056549 0.25285 -0.31541 -0.013158 -0.13871 -0.44219 -0.021219 -0.4027 0.22985 -0.085194 -0.20983 -0.082296 0.32407 0.40657 0.037332 -0.38168 -0.038003 0.31992 0.24388 0.089881 0.059928 0.047552 0.10602 -0.035391 -0.085916 -0.1957 -0.22984 -0.36314 0.22254 0.31069 -0.50821 -0.091778 -0.12275 0.44834 -0.069088 -0.26249 0.085682 -0.2234 0.12316 -0.029097 -0.39279 -0.2641 0.027807 -0.30032 -0.54826 -0.10283 0.056501 -0.34558 0.16769 -0.27878 0.2022 0.064424 0.049289 0.11577 0.056754 -0.10462 0.41602 0.17358 0.029559 0.12475 -0.063348 0.0012944 0.4585 -0.11693 0.15139 -0.31392 -0.17886 0.018437 0.090279 -0.36542 0.27629 0.53636 -0.4107 -0.6228 0.17978 0.28153 0.19611 -0.31369 0.1747 -0.25917 0.23502 -0.1257 -0.4115 0.32591 -0.11333 0.053609 -0.091434 -0.11871 0.32157 -0.5122 -0.32811 -0.26301 0.2134 0.241 -0.091797 -0.38105 0.081135 0.069593 
their -0.12191 0.13341 0.039015 0.085006 -0.1882 -0.050712 -0.22252 -0.30458 0.012136 -0.29804 0.0051553 -0.096517 0.035912 -0.10426 0.067452 0.36377 0.00059709 -0.17901 -0.19978 0.4029 0.058538 -0.16179 -0.089183 0.067919 -0.2436 -0.039433 -0.089653 -0.47181 -0.27528 -0.042645 -0.010528 0.37193 -0.097552 0.062269 0.022765 0.21526 -0.0032409 0.12944 -0.2063 -0.063659 -0.36177 0.13308 -0.22059 -0.22828 -0.20726 -0.10879 -0.53087 -0.014843 -0.053116 -0.37434 0.086147 -0.33494 -0.11626 0.062375 0.11914 0.010553 -0.083003 -0.19081 0.51759 0.10081 0.042273 0.26212 -0.031585 0.063144 0.33001 -0.038081 -0.0059038 -0.1579 0.032573 0.27114 0.22115 -0.30051 0.21252 0.53734 -0.32783 -0.059131 0.20747 0.035062 -0.11859 0.097651 0.093067 -0.1903 0.45519 -0.17035 -0.26697 0.40067 0.3789 0.095813 -0.10118 -0.15573 0.21779 -0.26869 -0.17696 0.028641 -0.041763 0.17208 0.072191 -0.19016 0.032491 -0.075062 
its 0.12196 0.25478 0.1949 0.30092 0.068364 -0.033555 -0.051953 -0.27374 -0.096012 -0.53642 -0.1237 -0.16073 -0.056739 0.00010148 0.31156 0.099447 -0.44386 -0.34522 -0.53095 0.22118 -0.031338 -0.23012 0.36565 0.019494 -0.053215 -0.14833 -0.052639 -0.32913 -0.23008 -0.042187 -0.27933 0.37032 -0.35814 0.0022969 0.044644 0.27497 -0.048601 0.069684 -0.33984 0.29801 -0.27045 0.057753 -0.13899 -0.035145 -0.41443 -0.313 -0.40775 0.28629 0.11907 -0.10753 0.075135 -0.29695 -0.16913 0.1876 0.024693 0.15831 -0.13235 -0.12981 0.46588 0.12913 -0.38917 0.16978 -0.048688 0.054084 0.32283 -0.14326 0.07595 0.16384 0.082386 0.2195 -0.085999 -0.25233 0.426 0.10077 -0.65254 -0.25512 0.057398 0.035598 0.1641 -0.10105 -0.21158 -0.028733 0.26298 -0.29885 -0.30011 0.26831 0.026714 -0.052954 -0.26679 -0.00064244 -0.065703 -0.3529 -0.08309 -0.17747 -0.029244 0.20242 -0.21397 -0.31104 0.08815 -0.1541 
first -0.22432 0.099173 0.27182 0.13457 -0.066693 0.036667 0.16547 -0.033515 -0.22988 -0.20485 -0.36755 -0.24868 -0.36226 -0.027563 0.47906 0.066395 -0.1696 -0.24908 0.045965 0.062536 -0.43519 -0.20386 0.28897 -0.11755 -0.026984 -0.29828 -0.048116 -0.15108 -0.19054 0.041184 -0.028128 0.28358 -0.21602 -0.23267 -0.19562 0.28412 -0.18534 -0.030846 -0.10644 0.15558 -0.26451 0.3426 0.16848 -0.059412 -0.13751 -0.016647 0.071216 0.014382 0.0016302 0.004672 -0.033292 -0.20769 0.1536 -0.11839 0.21382 0.073107 -0.12455 -0.010212 0.4736 0.13933 0.4217 -0.13124 -0.13092 0.17956 0.063096 -0.14622 -0.051633 0.21558 -0.11481 0.24431 0.082156 -0.346 0.23951 0.26531 -0.40012 -0.25866 0.33403 0.35725 0.47526 -0.049837 -0.097325 -0.011499 0.19329 -0.18681 -0.15587 0.14365 0.077909 0.31651 -0.10189 -0.18676 0.21076 -0.38225 0.19752 -0.14741 0.12091 0.13644 -0.26225 -0.32277 -0.084771 -0.053784 
they 0.092707 0.050864 0.19199 0.17312 -0.32622 0.25263 -0.21763 -0.32972 0.29612 -0.4016 -0.20888 -0.038942 -0.3013 -0.0095622 0.25205 0.17335 0.12777 -0.13905 -0.10016 0.35613 -0.018132 -0.070309 -0.1559 -0.04959 -0.22014 -0.039094 -0.19485 -0.42095 -0.41965 -0.0025571 0.24477 0.13871 -0.15913 -0.22884 0.10314 0.042674 0.012319 0.15395 -0.27684 -0.083329 -0.34323 0.12207 -0.24712 -0.23998 -0.17351 0.041659 -0.32805 -0.16887 -0.14672 -0.31905 -0.11378 -0.082168 0.087274 -0.07388 0.057256 -0.17938 0.01431 0.029732 0.46132 0.21464 0.23159 0.39706 0.004475 -0.018207 0.203 -0.044809 -0.070495 -0.24831 -0.16376 0.037619 0.36315 -0.20793 0.15273 0.25677 -0.58262 -0.25273 0.28744 0.12138 0.18507 0.01102 0.16899 -0.0685 0.17598 -0.26292 -0.23707 0.4143 0.44766 -0.083482 -0.14982 -0.16544 0.32253 -0.4284 -0.053844 0.028895 0.36423 0.11918 0.11988 -0.091644 0.12927 0.0026419 
some 0.12518 0.42024 0.25482 0.10882 -0.099834 -0.059068 -0.036136 -0.51059 0.058754 -0.34738 0.19937 0.059752 -0.14368 0.23997 0.3846 0.30232 0.023472 -0.18367 0.056201 0.39819 0.12519 0.097989 0.0028193 -0.087622 -0.040801 -0.11114 -0.095111 -0.46295 -0.15761 -0.34384 0.062679 0.15465 -0.23946 -0.024166 0.24247 0.45968 -0.13333 -0.25862 -0.20321 -0.13505 -0.12803 0.051434 -0.27045 0.047101 -0.10048 -0.17421 -0.15866 0.015339 -0.11031 -0.13863 -0.1217 -0.29365 0.015993 -0.15302 -0.061628 0.19754 0.11659 -0.043983 0.26954 0.11435 -0.043758 0.45932 -0.27793 0.062616 0.42118 -0.10181 0.099438 -0.22753 0.014579 0.211 0.089302 0.0027117 0.33899 0.46755 -0.47416 -0.51707 0.22139 0.17617 0.2619 -0.38926 0.030059 -0.15818 0.10763 -0.14775 -0.05214 0.44215 0.16683 0.10188 -0.11095 -0.082283 0.2066 -0.35902 -0.10645 -0.099167 0.20488 0.043632 -0.18975 -0.35157 -0.01927 0.12225 
had 0.038034 0.21207 0.41443 0.13818 -0.0055425 -0.10201 0.25938 -0.034204 -0.088641 -0.12255 -0.23501 0.011172 -0.35236 0.25632 0.082219 -0.055228 0.0083144 -0.19226 0.040866 0.5306 -0.089961 -0.11252 0.13608 0.047842 -0.31173 0.015246 -0.19255 -0.26084 -0.46583 0.049756 0.094483 0.20021 0.15224 -0.20216 -0.12608 -0.10089 -0.17435 -0.22785 -0.42382 0.28176 -0.63933 0.21147 -0.081652 -0.13213 -0.22588 0.16313 0.0024938 0.10814 -0.019178 -0.15448 -0.23838 -0.062467 -0.35122 0.026126 -0.12902 -0.09096 -0.069841 0.073019 0.38728 -0.1244 -0.039976 0.19369 -0.24224 0.21227 0.28874 0.11644 0.040901 0.19941 -0.40597 0.37054 0.15856 -0.29824 0.067181 0.24741 -0.49146 -0.1237 0.085366 0.24142 0.14809 -0.30772 -0.00089504 -0.33362 0.1871 -0.46431 0.094775 0.50164 0.24844 -0.10032 -0.32557 -0.38545 0.16175 -0.21679 -0.10167 -0.027745 0.41942 0.21294 -0.024208 -0.37496 0.10991 0.018234 
all 0.11465 0.24268 0.11476 0.23995 -0.18556 0.047292 -0.15284 -0.52749 0.16297 -0.44399 -0.028807 -0.019136 -0.18337 -0.072177 0.38399 0.32351 -0.0081924 -0.58253 -0.2856 0.37761 0.22152 0.24712 -0.052388 -0.052213 -0.13111 -0.22027 -0.097763 -0.14949 -0.29074 -0.02846 -0.11866 0.19547 -0.42093 -0.52894 -0.05844 0.4424 -0.21803 -0.16593 -0.15015 -0.14777 -0.30512 0.12268 -0.24256 -0.27765 -0.31898 -0.13328 -0.49418 -0.065666 -0.092048 -0.16883 0.03387 -0.23902 0.13768 0.21145 0.046974 0.059157 0.064599 0.0050666 0.49066 0.22692 -0.18725 0.36673 -0.17025 0.14121 0.16475 -0.29393 -7.9272e-05 -0.039027 -0.060802 -0.06003 -0.10758 -0.40001 0.34723 0.6565 -0.41618 -0.43085 0.39944 0.22119 0.47438 -0.36087 0.24598 -0.014444 0.27034 -0.2186 -0.30912 0.42338 -0.014427 0.16864 -0.062537 0.039921 0.11273 -0.39925 0.044033 -0.30355 0.31386 0.098642 0.055212 -0.26962 0.20633 0.11662 
more -0.055242 -0.063162 0.087971 0.31738 -0.069367 0.057823 0.035395 -0.026476 0.13511 -0.47394 -0.12594 -0.24213 -0.21858 0.18288 0.13646 0.074658 -0.10576 -0.36871 0.13199 0.33507 0.26025 -0.32714 0.23396 -0.30189 0.010532 0.32553 -0.12402 -0.38562 -0.017238 -0.2174 0.26152 0.32693 -0.1937 -0.13624 0.26687 0.39275 -0.067873 -0.10374 -0.46337 0.071934 -0.22963 -0.11082 -0.28026 0.06215 0.11954 0.04956 -0.16226 -0.097299 0.17588 0.087098 -0.0081484 -0.37765 -0.051018 0.014768 -0.031959 0.25122 -0.033652 -0.21828 0.50384 0.22494 -0.091507 0.40696 -0.23287 0.24041 0.171 -0.10279 -0.012694 0.011069 -0.13791 0.0055415 0.049075 -0.38268 0.3313 0.17831 -0.42803 -0.48703 0.18194 0.23453 0.0035282 -0.24042 -0.20681 -0.33197 -0.12685 -0.22824 -0.54825 0.18452 0.18268 -0.03932 -0.16746 -0.17779 0.27723 -0.295 -0.11822 -0.12459 0.48446 0.18328 0.065234 -0.19464 -0.038155 0.066724 
most 0.010804 0.31494 0.023158 0.26162 -0.13478 -0.10712 0.097341 -0.31918 -0.15019 -0.18601 -0.25286 -0.27917 -0.21523 -0.066054 0.1561 0.1635 -0.068215 -0.26327 -0.060308 0.28693 0.2637 -0.065685 0.19046 -0.13623 -0.20493 -0.18242 -0.1072 -0.55943 -0.11646 -0.028793 0.1081 0.4428 -0.49374 -0.33758 0.016661 0.59115 -0.023647 -0.33565 -0.17502 -0.047886 -0.085456 -0.059376 -0.30614 0.14663 -0.014277 -0.20228 -0.20885 -0.18145 -0.048901 0.13239 -0.036666 -0.40789 -0.127 0.10249 -0.057745 0.011058 -0.065781 -0.25829 0.25394 0.27185 0.12844 0.21574 -0.06877 0.069188 0.22003 -0.29007 -0.061447 -0.032892 7.9553e-05 0.13949 0.18969 -0.26588 0.35106 0.25395 -0.78001 -0.61381 0.31211 0.37945 0.14986 -0.50789 -0.018883 -0.042117 0.0664 -0.18155 -0.42687 0.28982 0.0067924 0.08714 -0.11157 0.019196 0.19264 -0.26936 -0.034395 -0.10783 0.25252 -0.0014468 -0.4218 -0.42576 0.061076 0.26203 
can -0.059789 -0.030459 0.69124 0.3487 -0.25057 0.4289 -0.16848 -0.56985 0.11794 -0.84558 -0.037797 -0.30317 -0.11917 0.044775 0.45802 0.29558 -0.0054241 -0.66875 -0.35115 0.53365 0.1651 -0.29984 -0.19376 0.11156 -0.069276 -0.26599 0.062095 -0.1882 -0.13662 -0.28173 -0.094744 0.36237 -0.23351 -0.14786 0.26314 0.32862 0.015309 -0.34612 -0.094716 0.21898 -0.28954 -0.12114 -0.1034 -0.24551 -0.097665 -0.23657 -0.46444 -0.20641 -0.23467 -0.2991 -0.17462 -0.13123 0.26998 -0.28844 0.063382 0.095275 0.32658 -0.072478 0.53506 0.46758 -0.14173 0.69154 -0.26201 0.21706 0.068226 -0.027387 0.067093 -0.21205 -0.17503 -0.12868 0.02771 0.10188 0.3682 0.093696 -0.78646 -0.54544 0.30022 0.29793 0.41656 -0.51653 -0.057894 -0.03302 0.16973 -0.34225 -0.063788 0.28834 0.32244 -0.039648 -0.081847 -0.046295 0.057895 -0.43513 -0.10936 -0.26237 0.2636 -0.19158 0.146 0.07093 -0.086915 -0.20643 
been 0.18157 0.28701 0.60937 0.23091 0.19413 -0.20029 0.0014987 -0.078719 -0.13275 -0.12363 0.045711 -0.19399 -0.33193 0.32543 0.45631 0.0084929 -0.043458 -0.37521 -0.14104 0.52337 0.033125 -0.03023 0.16358 -0.082113 -0.084285 -0.14379 0.050494 -0.33453 -0.42763 -0.16805 0.064481 -0.10619 -0.16219 -0.31488 0.049794 0.072215 -0.31596 -0.32064 -0.38308 0.17216 -0.42428 0.030986 -0.2298 0.087294 -0.26543 -0.13109 -0.077648 -0.1337 -0.071931 0.021935 -0.24449 0.10772 -0.2856 0.04819 -0.11066 0.047478 0.10426 0.25162 0.45057 -0.098607 0.1315 0.58686 -0.36233 0.078946 0.30266 0.19161 0.10311 -0.11103 -0.36069 0.46095 0.14921 0.043658 0.090969 0.092069 -0.73358 -0.49806 0.033105 0.18288 0.2547 -0.54638 0.12242 -0.2616 0.23686 -0.39086 0.17921 0.34194 -0.10937 -0.40212 -0.29214 -0.15356 0.08537 -0.39075 -0.21241 -0.12005 0.44431 0.15635 -0.1772 -0.2467 -0.026565 0.096485 
such -0.091691 0.36869 0.15041 0.28372 -0.098038 0.098201 -0.02174 -0.39708 -0.010348 -0.20578 0.29414 -0.20226 0.015859 -0.10357 0.45679 0.092634 -0.065844 -0.29478 0.049538 0.42004 -0.077287 0.049047 -0.017702 -0.034258 0.12768 -0.045431 0.043694 -0.2866 -0.071893 -0.29808 0.0003728 0.268 -0.15354 -0.1887 0.050419 0.43293 -0.079842 -0.30891 -0.088251 -0.11576 -0.11679 0.053805 -0.56426 0.060268 0.12676 -0.18124 -0.20088 0.059606 0.033853 -0.0091594 -0.14484 -0.44529 0.21795 -0.12791 0.12085 -0.052438 0.25187 -0.14329 0.14521 0.26853 0.044153 0.49774 -0.095619 0.18536 0.42539 -0.21706 0.23348 -0.16637 -0.018261 0.10212 0.22594 -0.2449 0.23197 0.34308 -0.21138 -0.64108 0.21547 0.14489 0.19673 -0.43098 0.074189 -0.073854 0.093101 -0.19108 -0.029733 0.37854 0.039848 -0.061129 -0.1109 -0.045771 0.32756 -0.36931 -0.15898 0.0024214 0.23559 0.1569 -0.084536 -0.40244 0.06581 -0.018891 
many 0.046006 0.31746 0.15898 -0.034914 -0.020618 -0.060479 0.045292 -0.47064 -0.0019347 -0.17975 0.015255 0.014233 -0.2278 0.019089 0.27169 0.14723 0.10525 -0.13269 -0.090542 0.41983 0.13014 0.16578 -0.039809 -0.015397 -0.13106 -0.11432 0.060291 -0.45426 -0.18237 -0.29419 0.21496 0.2631 -0.30288 -0.15038 0.21348 0.24788 -0.12349 -0.27199 -0.1542 -0.13654 -0.18525 0.061772 -0.39855 0.04113 0.06455 -0.10976 -0.2367 -0.13704 0.052164 -0.20165 -0.19541 -0.36967 -0.19677 -0.090728 -0.0030387 0.03144 -0.083448 -0.1876 0.24564 0.077231 -0.12138 0.38089 -0.22221 0.012021 0.23443 -0.17442 0.036581 -0.25625 -0.096611 0.1875 0.1167 -0.19146 0.35551 0.65291 -0.50057 -0.64908 0.21246 0.32833 0.23627 -0.50006 0.15756 -0.23408 0.14033 -0.20305 -0.17125 0.38848 0.026196 -0.085494 -0.12445 -0.10536 0.18557 -0.35719 -0.23112 -0.035888 0.16727 0.1225 -0.25176 -0.40522 0.14134 0.19147 
who 0.06738 0.42766 0.26953 0.092126 -0.22696 0.25346 0.17822 -0.35812 0.21829 0.0072985 -0.1573 0.17262 -0.25932 0.32774 -0.015555 0.090888 -0.039151 -0.16467 0.038246 0.48517 -0.13182 0.17318 -0.05594 -0.2817 -0.49358 0.059768 -0.18191 -0.5474 -0.27638 0.36281 0.32253 0.11586 0.25801 -0.091262 -0.3462 0.028768 0.04596 -0.18134 -0.10091 0.45175 -0.15078 0.23952 -0.15981 -0.093575 -0.02182 0.051241 -0.36407 -0.36519 -0.0026449 -0.2742 -0.038374 0.034495 -0.12126 -0.1485 0.14619 -0.13811 -0.066874 -0.055182 0.5217 -0.015181 0.55752 0.30399 -0.28196 0.24069 0.36405 0.1146 0.22709 0.16881 -0.46782 0.24785 0.077881 -0.19765 0.17584 0.3653 -0.28807 -0.34477 -0.0011872 0.48828 0.26151 0.0035714 0.14852 -0.2802 0.14494 -0.24306 0.00037599 0.25968 0.048214 0.19421 -0.072811 -0.15272 0.12859 -0.16083 0.051152 0.19055 0.22719 -0.099034 -0.11032 -0.28793 0.10617 0.22465 
new -0.0072184 0.193 0.013909 -0.065894 0.038184 -0.099312 0.12682 -0.2547 -0.10441 -0.44852 -0.61718 -0.08159 0.045462 -0.026035 0.51912 0.11327 -0.36048 -0.25631 -0.2632 0.1731 -0.18186 -0.26553 0.17667 -0.015484 -0.13313 -0.48563 -0.14101 -0.23143 -0.20845 -0.21086 0.19705 -0.043837 -0.088185 -0.096299 -0.10422 -0.10119 -0.26002 -0.21293 -0.1364 -0.011006 -0.29058 0.25491 -0.2968 -0.36274 0.41655 0.32581 0.074601 0.39253 0.17661 -0.068898 0.2237 -0.35852 -0.12291 0.11734 0.30695 0.35603 0.14559 -0.35031 -0.10602 -0.072998 0.24355 -0.25277 -0.53748 -0.126 0.38498 -0.33835 -0.21633 -0.3624 -0.062777 0.26618 -0.12294 -0.21536 0.24838 0.54237 -0.36279 -0.44372 0.23173 0.12501 0.42094 0.13036 -0.20231 -0.21184 0.023218 -0.11418 0.07425 0.1352 -0.15525 -0.058802 -0.36349 -0.50777 0.16826 -0.369 0.33585 0.06646 0.24948 0.14224 0.064316 -0.13242 0.23072 -0.031304 
used -0.65015 -0.04219 0.45508 0.19148 -0.085021 0.089176 -0.1326 -0.37524 -0.21284 -0.67561 0.2509 -0.84511 -0.22242 -0.13007 0.61192 0.18575 -0.15062 -0.41141 -0.18362 0.14295 -0.11192 -0.10859 0.047785 0.19709 0.053231 -0.055814 -0.20719 -0.049535 -0.19162 -0.2109 0.2077 0.1979 -0.25823 0.15553 -0.1734 0.73597 0.24934 -0.065194 0.034714 0.016253 -0.007454 0.027052 -0.32395 0.10498 0.071922 -0.14206 -0.2979 -0.20916 -0.35946 -0.45066 0.06593 -0.041878 0.12088 0.22448 0.27984 -0.16893 0.30122 -0.13125 0.45075 0.29588 0.055967 0.25609 -0.093026 -0.050842 0.31114 0.1364 0.12165 -0.31914 -0.28795 0.076867 0.47585 0.091742 0.27927 0.093686 -0.68155 -0.61094 0.3399 0.30238 0.30785 -0.15234 0.014834 -0.068132 0.033615 -0.15875 -0.090601 0.12205 -0.01896 0.44241 0.047609 0.060879 -0.14638 -0.64221 -0.04596 -0.56054 0.26904 -0.32429 0.073126 -0.70121 0.051644 -0.097158 
there -0.29678 0.28483 0.33294 0.34338 -0.12964 0.15053 -0.060034 -0.49222 0.22928 -0.3074 0.15423 -0.077103 -0.31023 0.18361 0.49884 0.22754 -0.086056 -0.43253 -0.022921 0.43193 0.22469 0.2842 0.2936 0.17995 -0.18636 0.064225 -0.24906 -0.23339 -0.37443 -0.42815 -0.029049 0.14244 -0.17574 -0.29685 -0.17752 0.39843 -0.28658 -0.039324 -0.30859 -0.18022 -0.19901 0.097953 -0.03567 0.11708 -0.34002 0.058749 -0.17821 -0.12614 -0.084063 0.034542 -0.15137 0.027067 0.098031 0.11439 -0.038036 0.22275 0.040757 -0.0070513 0.44794 -0.11015 -0.18869 0.42086 -0.30225 -0.14386 0.078925 -0.14566 0.020859 -0.2118 -0.14617 -0.12866 -0.14813 -0.12576 0.49087 0.45254 -0.73399 -0.33683 0.20957 0.24802 0.35822 -0.38177 -0.00035763 -0.42801 0.081763 -0.23248 -0.13187 0.23796 0.019845 0.12882 -0.17849 0.2363 0.32585 -0.19894 -0.12164 -0.15745 0.2605 0.2287 0.052197 -0.1299 -0.20161 0.27466 
after -0.31814 -0.10837 0.11581 0.12721 0.0070673 -0.089194 0.078031 -0.28556 -0.20655 -0.22509 -0.24789 -0.04555 -0.37618 0.11027 0.30596 -0.1598 -0.25601 -0.097122 -0.16855 0.17611 -0.023952 -0.076685 0.1961 -0.060977 -0.20326 -0.10479 -0.27016 -0.024161 -0.55238 0.054393 -0.038071 0.14969 0.054697 -0.066762 -0.16805 0.026471 -0.077181 -0.034199 -0.13618 0.18348 -0.36849 0.26845 0.21588 -0.17999 -0.51559 -0.1961 0.078662 0.053538 0.10128 -0.10981 -0.22926 -0.11822 -0.14391 0.13754 0.26538 -0.15114 -0.26102 -0.12846 0.39515 0.41648 0.23231 -0.27123 -0.23957 0.054407 0.11835 -0.038676 -0.30448 0.21742 -0.030682 0.27173 0.043054 -0.22947 0.19314 0.29671 -0.26273 -0.40402 0.28012 0.32044 0.39829 -0.2217 -0.088248 -0.43203 0.58174 -0.41727 -0.17893 0.31707 0.021495 -0.062919 -0.2144 -0.10682 0.30817 -0.17331 -0.11723 -0.10329 0.084936 0.24744 -0.17579 -0.28932 -0.11741 -0.093318 
when -0.22499 -0.14615 0.33103 0.4583 -0.094679 0.25408 0.15133 -0.11507 0.040156 -0.36891 -0.37449 -0.010616 -0.39272 0.077622 0.23088 -0.1686 -0.23458 -0.22713 -0.040663 0.20329 -0.11931 -0.068068 0.14343 -0.20944 -0.11352 -0.046836 -0.17496 -0.19441 -0.28934 -0.13486 -0.05441 0.13592 0.031933 -0.077257 -0.0090248 0.094558 -0.033484 -0.26265 -0.25961 0.056177 -0.35534 0.038986 0.15831 -0.36289 -0.34531 -0.12353 -0.069127 0.07883 0.21363 -0.23985 -0.10787 -0.22005 -0.024425 0.001537 0.29658 -0.15014 -0.20543 -0.064153 0.34345 0.12216 0.095792 0.048234 -0.097607 0.2277 0.086926 0.026533 -0.0092955 0.18857 -0.19261 0.11339 0.13661 -0.044736 -0.064316 0.28144 -0.51555 -0.29747 0.19927 0.097785 0.42277 -0.23812 -0.0012942 -0.23081 0.15682 -0.5014 -0.14787 0.26719 0.19584 0.038145 -0.22341 -0.045233 0.19769 -0.1718 -0.079926 0.025162 0.51352 0.11268 -0.058829 -0.22924 -0.074066 0.008658 
into 0.018672 -0.11313 0.051172 0.025416 0.0086194 0.44625 -0.073244 -0.23995 0.088352 -0.51434 -0.23646 -0.26706 -0.32193 0.24001 0.2389 0.19471 -0.1367 -0.44847 -0.37502 -0.29034 -0.10866 -0.6196 0.040604 -0.39405 -0.007689 -0.35191 0.059561 -0.18705 -0.45035 -0.30662 -0.13044 0.35948 0.1898 0.099006 0.046173 0.080831 -0.23622 -0.1875 0.28468 0.039797 -0.19078 0.24237 -0.15308 -0.31766 -0.31683 -0.058019 -0.078522 0.43834 0.086766 -0.23609 0.0075334 -0.0048558 0.32292 -0.31664 0.056073 -0.081287 -0.48026 0.1998 0.17877 0.3514 -0.25121 0.28263 -0.18529 0.080921 0.20521 -0.08469 -0.080409 -0.12387 -0.4173 0.03104 -0.041097 -0.14051 0.29778 0.33296 -0.63167 -0.42319 0.39296 0.39954 0.079372 -0.43344 -0.097655 -0.22662 0.36517 -0.44491 -0.27615 0.31838 -0.039888 0.023506 -0.12945 -0.45822 0.11653 0.064639 -0.60816 0.041 0.5555 0.45768 0.11039 0.0058222 0.059126 -0.078406 
american -0.33482 0.14054 -0.011017 0.10264 -0.37724 -0.069408 0.067771 -0.13421 -0.026415 -0.043671 -0.1933 -0.28596 0.19467 0.18468 0.17972 0.14623 -0.18014 -0.40554 -0.28496 0.34319 0.13147 -0.3934 0.26832 -0.41324 0.040684 -0.131 -0.32634 -0.21567 0.12692 -0.12812 0.517 -0.23405 -0.038933 0.031894 -0.63285 0.38888 -0.13898 -0.024929 -0.27329 0.17808 0.19551 0.53805 -0.3412 0.29406 0.76872 -0.16647 0.28863 0.091841 0.18522 -0.06367 0.064363 -0.5553 0.27659 0.14788 0.34365 0.20217 -0.28284 0.16693 0.63036 0.29971 -0.0060466 0.30352 0.030949 0.36732 0.41696 -0.57863 0.0052823 -0.23211 -0.14868 0.23564 0.1949 -0.10199 0.28233 -0.022328 -0.088083 -0.42884 -0.024701 0.53365 0.41896 -0.30765 0.50061 -0.48781 0.58269 -0.38484 0.29337 -0.11478 -0.0058087 0.21402 0.10071 -0.42927 -0.10679 0.13229 -0.10771 0.3156 -0.23811 -0.077154 -0.28678 -0.54052 -0.059946 0.34602 
time 0.019792 0.12341 0.33842 0.38808 0.0079629 0.16707 0.1775 0.029872 -0.02369 0.025577 -0.11846 -0.2139 -0.30338 -0.053129 0.34808 -0.10579 -0.15427 -0.056335 0.00019707 0.16024 -0.22866 -0.10204 0.11744 -0.088929 -0.36688 -0.42367 0.1033 -0.24642 -0.30977 -0.041424 0.21287 0.17532 0.084712 -0.29309 -0.28686 0.14341 -0.17118 -0.094841 -0.48581 0.29027 -0.33845 0.20254 0.136 -0.16889 -0.15533 0.0030503 0.032392 0.053614 0.1581 -0.18425 -0.19193 -0.15655 -0.085617 0.099659 0.080666 0.031519 -0.060515 -0.37303 0.33239 0.29708 -0.21787 0.35166 -0.31124 0.17927 0.12556 0.01385 -0.060488 0.37964 -0.14146 0.13946 0.075707 -0.055562 0.15238 0.28539 -0.27207 -0.34694 0.4449 0.11805 0.33887 -0.1495 -0.3002 0.11397 0.15008 -0.30924 -0.15027 0.14373 0.11575 0.095129 -0.16984 -0.046677 0.18521 -0.14269 0.24742 0.14428 0.36059 0.098216 0.12522 -0.25421 -0.04963 0.21892 
these 0.018832 0.16485 0.062989 0.13948 -0.13727 0.14061 0.063928 -0.44616 0.17532 -0.34643 0.18807 -0.12684 -0.065383 -0.12005 0.34231 0.24174 0.10926 -0.20044 -0.066227 0.39794 0.020645 0.029481 -0.063495 -0.024412 0.03109 -0.034697 -0.007133 -0.47738 -0.18952 -0.34339 -0.088855 0.39009 -0.31417 -0.11352 0.27683 0.25144 -0.25984 -0.010169 -0.087612 -0.28227 -0.049268 0.033082 -0.35916 -0.11024 -0.19815 0.067239 -0.42492 -0.12588 -0.089075 -0.29511 -0.031032 -0.17559 0.11508 0.0035101 -0.029807 0.019333 0.028633 0.01713 0.3346 0.14578 -0.096418 0.36179 -0.089477 -0.18296 0.26396 -0.15552 -0.12219 -0.2058 -0.031807 0.1647 0.25172 -0.19112 0.33995 0.58945 -0.47415 -0.52801 0.38001 0.29415 0.22529 -0.30087 0.11133 -0.20489 0.16004 -0.19692 -0.14351 0.42034 0.12132 -0.20081 -0.11525 -0.13445 0.27107 -0.43539 -0.24403 -0.16804 0.23068 0.23759 -0.020666 -0.25821 0.056128 -0.12196 
only -0.07111 0.3163 0.28275 0.16698 -0.25226 0.29189 0.014718 -0.3986 0.17315 -0.29396 0.00019624 -0.10113 -0.46963 0.013415 0.21299 0.16208 -0.12939 -0.35854 -0.11883 0.24772 -0.00075886 0.015348 0.10798 -0.11519 0.0052971 -0.089693 -0.23403 -0.28837 -0.35282 -0.063259 -0.095813 0.17811 -0.3265 -0.29158 -0.0093035 0.29888 -0.13214 -0.24802 -0.42216 -0.044449 -0.32398 0.063286 0.0037083 -0.11335 -0.47833 0.0090117 -0.12581 -0.097416 -0.041633 -0.043643 -0.12547 -0.27674 -0.062396 0.09727 -0.14683 0.19412 0.085061 0.0043676 0.44488 0.10223 0.038333 0.2379 -0.15036 0.1392 0.11258 -0.23085 0.097992 0.062785 -0.038691 0.046185 -0.074563 -0.15753 0.30357 0.13562 -0.57326 -0.35851 0.17115 0.15739 0.27332 -0.20521 -0.12517 -0.067246 0.12114 -0.24162 -0.21651 0.41931 0.2635 0.15599 -0.017609 -0.03884 0.13025 -0.18723 -0.01644 -0.15926 0.36094 0.24618 -0.26 -0.22888 0.026156 0.095556 
see -0.324 0.61299 0.00046417 0.30933 0.021389 0.26968 -0.084766 -0.63055 -0.20945 -0.46247 0.11205 -0.1394 0.19628 -0.11052 0.72432 0.23003 -0.13674 -0.25891 0.10568 0.20571 -0.071115 -0.0636 0.18904 -0.25446 0.0014737 -0.14069 -0.19332 0.12637 -0.014289 -0.45974 0.12246 -0.14014 -0.051037 -0.19655 -0.29819 0.71591 -0.26494 -0.10253 0.070168 0.22703 0.11116 -0.10355 -0.39527 0.026519 0.1161 0.051606 0.07145 0.27619 0.1282 -0.063845 0.051214 -0.065371 0.03083 0.341 0.29087 0.25869 0.24413 -0.36973 0.23691 0.073289 -0.018999 -0.08868 -0.079888 0.3542 -0.065142 0.11546 0.10316 0.10385 0.078531 0.092574 0.071485 -0.36708 0.1175 -0.17439 -0.37522 -0.45224 0.02249 0.14905 0.31761 -0.43458 -0.083109 -0.33372 0.12002 -0.27439 -0.094034 0.41284 0.033026 0.38537 -0.11549 0.022385 0.081312 -0.36073 -0.030105 -0.16268 -0.0071287 0.17288 0.027607 -0.24747 -0.38798 0.31133 
may -0.26616 0.20229 0.16608 0.34039 -0.44475 0.12465 -0.052944 -0.57786 0.057218 -0.62463 -0.11682 -0.29305 -0.22984 0.26237 0.28998 -0.22103 0.083853 -0.24492 -0.145 0.52134 0.19187 -0.21035 0.061407 -0.013004 0.0092602 -0.31604 -0.28062 -0.22729 -0.24582 -0.25708 0.015724 0.020263 0.016229 -0.13779 0.10448 0.28131 -0.080099 -0.086658 -0.30891 0.030443 -0.080883 -0.31586 -0.17004 -0.32868 -0.29957 -0.014181 -0.12878 0.010724 -0.32072 -0.013788 -0.14873 -0.25395 0.23077 -0.094496 0.21773 0.12445 0.16861 0.037352 0.54498 0.2279 -0.014189 0.35817 -0.25263 0.094138 0.40739 -0.25685 0.0586 -0.12674 -0.0841 0.080386 0.18499 0.10533 0.21935 0.19581 -0.57586 -0.40206 0.23169 0.22455 0.37437 -0.27188 -0.20519 0.056862 0.13121 -0.16045 -0.073562 0.19667 0.34315 -0.20542 -0.0055905 -0.22683 -0.050146 -0.19586 0.029434 -0.19953 0.16138 -0.06074 0.14355 0.029908 -0.18143 -0.085158 
than -0.011042 0.0044996 0.14648 0.41978 -0.20094 0.00023163 0.14275 0.020881 0.13397 -0.47097 -0.0030474 -0.16248 -0.24336 0.045923 0.31149 0.16036 -0.0022863 -0.52245 0.071738 0.33754 0.34559 -0.12914 0.090422 -0.41672 0.095642 0.36044 0.012543 -0.31914 -0.0019194 -0.11865 0.49461 0.32411 -0.24176 -0.12373 0.18103 0.47676 -0.15448 -0.24292 -0.40989 0.016712 -0.29234 -0.015804 -0.16913 -0.098436 -0.29155 0.040262 -0.15692 -0.13552 0.2018 0.094469 -0.08662 -0.51902 -0.098245 0.22401 -0.16815 0.38008 0.060354 -0.15466 0.68806 0.20364 -0.12121 0.27812 -0.30853 0.22391 0.24824 -0.19492 0.074529 -0.0095929 -0.029247 -0.047318 -0.0014561 -0.49681 0.33501 0.011917 -0.51349 -0.44695 0.011897 0.29881 -0.20129 -0.21764 -0.40162 -0.51935 -0.19441 -0.1785 -0.64999 0.06439 0.25701 0.15904 -0.26396 -0.45158 -0.038451 -0.24354 -0.048308 -0.12461 0.49946 0.34593 0.097321 -0.24785 -0.12972 0.011865 
world 0.18293 0.12358 -0.12534 0.027998 -0.13214 -0.16606 0.019889 -0.11491 0.10694 -0.06274 -0.42117 -0.07777 -0.18212 -0.14003 0.59318 0.17985 -0.10158 -0.24686 -0.33698 -0.054337 -0.46539 -0.23341 0.1323 -0.3352 -0.024121 -0.1238 0.12728 -0.37066 -0.14363 0.27034 0.35238 0.095046 -0.11754 -0.46633 -0.41975 0.62701 -0.36151 -0.10067 -0.60222 0.30425 -0.0496 -0.14356 -0.1834 0.046783 0.41669 -0.35731 0.21999 -0.027383 -0.0047429 0.2294 -0.15156 -0.10903 -0.48852 -0.024348 -0.0069282 0.19158 -0.42398 0.024218 0.068078 0.21324 -0.084072 0.24627 0.0028205 0.4103 -0.057772 0.0082161 -0.26046 0.25821 -0.089289 0.095489 0.026112 0.054228 0.30361 0.22179 -0.56593 -0.56377 0.16107 0.58496 0.55827 -0.22805 0.25443 0.045166 0.57264 -0.069229 -0.036095 0.27215 -0.26465 0.27353 0.3622 -0.020165 -0.11758 -0.41247 -0.0096482 0.11046 0.16163 0.29994 0.11074 -0.35666 -0.036344 0.065951 
i 0.055247 0.19694 0.22835 0.26738 -0.17857 0.77069 0.44817 -0.33452 0.44165 -0.39378 -0.16699 0.36951 0.087111 -0.28118 0.63985 -0.11068 0.13922 -0.18731 0.48292 0.062961 -0.42389 0.060235 -0.2064 0.11268 -0.095897 0.17412 -0.3546 0.089357 -0.34709 0.22763 -0.083843 -0.022978 0.22695 -0.09763 -0.32958 0.15226 -0.30171 -0.0042343 -0.57034 0.34378 -0.16712 0.32051 -0.41505 -0.1104 -0.2488 0.36813 0.10179 0.074137 0.30229 0.25953 -0.2615 -0.18248 -0.30044 -0.35852 0.2058 -0.1424 -0.0064989 -0.10056 -0.25017 -0.30072 0.10423 -0.12356 0.011168 0.47826 0.17354 0.41003 -0.48551 0.063282 -0.12429 -0.49651 -0.051971 -0.011049 -0.18409 0.088594 -0.20463 -0.27885 0.11786 0.23032 0.34704 0.096654 0.090776 0.02713 0.43621 -0.30679 -0.064567 0.15492 0.36492 0.47808 0.16779 -0.26518 0.44736 -0.16731 0.068081 -0.11395 0.38689 -0.31768 -0.16841 -0.21189 -0.13985 0.047274 
b -0.1911 0.29018 0.33571 0.39603 -0.39326 0.808 0.42389 -0.48065 0.16592 -0.53771 0.012803 -0.01921 0.040731 -0.29826 0.41765 -0.36242 -0.35134 -0.47773 0.36486 -0.068248 0.052697 0.16558 -0.063533 0.32965 0.19346 0.030169 -0.44962 -0.21876 0.24485 0.09743 0.084081 0.026029 -0.14671 0.13882 -0.71367 0.23746 -0.095396 -0.0046545 -0.49182 0.23229 0.06361 0.57054 -0.29446 0.17002 -0.18907 0.084526 0.28317 -0.10889 0.53488 0.42209 -0.11 -0.86207 0.50943 -0.2752 0.30369 -0.1452 -0.11329 0.079466 0.28192 -0.33436 -0.17715 -0.081002 -0.061133 0.17386 0.37319 0.073396 0.21682 0.19398 0.21389 0.11715 0.022896 -0.12814 0.068507 0.29824 -0.15281 -0.197 0.081891 0.0086781 0.26748 -0.18845 0.12381 0.11554 0.18669 0.1225 0.27896 0.27066 0.046903 -0.029297 0.20265 -0.091196 0.14845 0.4405 0.057931 -0.34913 0.28956 0.11667 -0.19133 -0.48308 0.065273 -0.025303 
would 0.012262 0.21944 0.32606 0.14554 -0.46126 -0.087545 -0.0081463 -0.33457 0.09013 -0.33794 -0.45237 -0.077938 -0.46791 0.028076 0.24608 -0.018713 0.25488 -0.21996 0.10451 0.71429 -0.28256 -0.39234 -0.098163 0.051413 -0.183 -0.1367 -0.15475 -0.087318 -0.21696 -0.017332 0.13149 0.076537 0.16873 -0.097948 -0.10203 0.056131 -0.0040192 0.085677 -0.43807 0.28539 -0.38053 0.27792 -0.25411 -0.013968 -0.21975 0.30413 -0.12476 0.19184 -0.11589 -0.10352 -0.082751 -0.35149 0.10437 -0.15722 -0.013091 0.10928 -0.091628 -0.16615 0.39125 0.2813 0.10221 0.26247 -0.36044 0.45687 0.12973 0.033159 0.020572 -0.15217 -0.0023617 0.1254 0.13736 0.010443 0.17718 0.076932 -0.57533 -0.18661 0.19657 0.013985 0.21888 0.063572 -0.32406 -0.09317 0.22566 -0.33695 -0.017072 0.19528 0.46466 -0.014155 -0.36211 -0.12803 0.28149 -0.26294 0.33869 -0.084616 0.29277 -0.022974 0.086045 -0.16421 0.15606 -0.043962 
d 0.00080501 0.2593 0.018239 0.49917 -0.19697 0.91852 0.44961 -0.47684 0.25632 -0.46362 -0.17912 -0.10235 0.11104 -0.093012 0.57786 -0.33197 -0.35656 -0.31514 0.34321 -0.05499 -0.309 0.19029 0.12328 0.38919 0.10956 0.11951 -0.17031 -0.035545 0.14591 0.17213 0.015144 0.13957 0.095231 -0.044013 -0.65209 0.13085 0.025466 -0.22957 -0.35703 0.40022 0.18382 0.38872 -0.60614 0.070159 -0.22793 -0.039683 0.17795 0.23828 0.58304 0.34651 -0.29713 -0.50344 0.23068 -0.28796 0.055601 0.177 -0.10017 0.096121 0.15418 -0.12049 0.0018795 -0.14787 -0.091417 -0.1995 0.23891 -0.21995 0.10328 0.1397 -0.027437 0.24403 0.26814 -0.024724 0.20079 0.0070054 0.046704 -0.07479 -0.11955 0.46187 0.2549 -0.33618 0.012169 -0.15159 -0.067726 0.0022532 0.3578 0.37619 0.19687 0.12025 0.2985 -0.60451 -0.0013826 0.39885 0.049701 -0.22873 0.055593 -0.0014371 -0.25504 -0.36289 -0.030643 -0.11255 
no -0.14966 0.2877 0.23361 0.31225 -0.32877 0.36054 -0.26498 -0.40753 0.088486 -0.19133 0.30373 0.20724 -0.17223 0.099407 0.40906 -0.034366 0.10585 -0.32919 0.23521 0.32971 -0.01508 -0.042595 0.46024 0.063962 -0.16179 0.09078 -0.24889 -0.088762 -0.27164 -0.38 -0.058318 0.0069863 -0.065339 -0.37851 -0.15992 0.20969 -0.34657 -0.33308 -0.47111 -0.047165 -0.44255 0.12797 0.1028 0.030289 -0.022019 0.30317 -0.11091 -0.057295 0.092484 0.28527 -0.12042 -0.17821 -0.16112 0.42925 -0.15206 0.33572 0.10833 0.21909 0.4444 -0.065742 -0.15424 0.26568 -0.13928 0.3725 0.344 -0.10395 0.23821 -0.26722 0.1235 -0.18702 -0.1501 -0.34135 0.1676 0.12538 -0.50754 -0.05243 0.040538 0.33202 0.15579 -0.14699 -0.42168 -0.10514 0.059904 0.00016183 -0.085805 0.099112 0.45184 0.22041 -0.19419 -0.11536 0.30077 -0.20357 0.20588 0.10518 0.40178 0.048694 0.055456 -0.14348 -0.25183 -0.081431 
however -0.10378 0.23937 0.29908 0.24267 -0.15728 -0.051196 0.11569 -0.30557 0.0633 -0.28544 -0.054975 -0.11945 -0.37507 -0.011316 0.18126 0.045314 -0.03768 -0.19387 0.11451 0.24461 -0.13479 -0.11227 0.15093 -0.01945 -0.16189 -0.10071 -0.14727 -0.27136 -0.23508 -0.27145 0.045604 -0.055042 -0.18915 -0.18936 0.12537 0.22983 0.0026702 -0.00014922 -0.28444 0.079218 -0.30273 0.022051 -0.2317 0.087191 -0.25391 -0.079196 -0.061362 0.067764 -0.063866 0.05319 -0.11315 -0.28362 -0.12994 0.088499 0.044123 0.086544 -0.09804 -0.055187 0.47535 0.089185 0.066117 0.23963 -0.091738 0.071985 0.14783 -0.020196 -0.057696 -0.11799 0.036609 0.20241 0.13566 -0.095141 0.26283 0.19086 -0.66082 -0.34901 0.084527 0.092267 0.11279 -0.14668 -0.16591 -0.070767 0.035887 -0.29956 -0.082199 0.28831 0.11782 -0.098907 -0.19576 0.038283 0.24436 -0.25906 -0.017552 -0.013073 0.2102 0.1309 -0.12519 -0.32039 -0.12761 -0.0023096 
between 0.10724 0.28913 0.17759 0.25456 -0.32192 0.17081 0.18475 -0.36781 0.032293 -0.19936 0.36092 0.11496 -0.37969 -0.026276 0.69713 0.1701 -0.22009 -0.0067415 -0.0055274 0.090711 -0.10801 -0.052802 0.010475 -0.42448 -0.39544 0.015572 -0.33147 -0.67478 0.049198 -0.79404 -0.03018 0.56418 0.14656 0.060267 -0.18517 0.21804 -0.37907 -0.16327 -0.60671 0.13884 0.25276 -0.36572 -0.042892 -0.49578 -0.26147 0.016937 0.212 0.24192 -0.16933 -0.048924 -0.17442 -0.27018 0.4865 0.135 -0.089511 -0.033995 0.12034 0.10617 0.35256 -0.070599 -0.34408 -0.059613 -0.14767 0.061964 0.37332 -0.17894 0.015116 0.090778 -0.048686 0.32536 -0.15183 0.053009 0.048325 0.47621 -0.61259 -0.35738 -0.16638 0.04847 0.26648 0.014898 -0.010322 -0.0071576 0.25787 -0.33529 -0.15528 0.37934 0.1791 0.39488 -0.51165 0.11338 0.064784 0.21494 -0.184 0.47732 0.25025 0.79821 -0.07481 -0.1755 -0.046875 0.023265 
about 0.16509 0.35043 0.34209 0.078686 -0.053763 0.22895 0.082383 -0.20817 0.30287 -0.26557 -0.17356 0.10439 -0.3219 0.19802 0.4027 0.51379 -0.030528 -0.15438 0.20732 0.5049 -0.034807 0.087321 0.31243 -0.41033 -0.15189 0.25097 -0.086962 -0.44356 -0.028909 -0.25017 0.23428 0.11275 -0.10133 0.38936 -0.23664 0.29513 -0.31997 0.037068 -0.13677 0.30187 -0.056452 -0.024546 -0.14334 -0.13085 -0.3044 0.28609 0.10878 0.29225 0.018025 -0.13465 -0.39988 -0.28314 -0.17494 0.22801 -0.16123 0.37674 -0.21599 -0.28821 -0.014975 0.022272 -0.47809 0.10948 -0.34457 0.17282 0.012619 0.071758 0.31236 0.50771 -0.19374 0.13139 -0.074182 -0.069043 0.31274 0.22644 -0.44844 -0.12784 0.26219 0.27534 0.42499 -0.34372 -0.23813 -0.53346 0.37084 -0.28098 -0.31389 -0.02856 0.2064 0.18231 -0.016366 -0.13867 0.14857 -0.15833 0.014315 0.0068879 0.40501 0.073134 0.0067028 -0.098134 -0.41586 0.16808 
over 0.14799 0.1685 0.31488 0.43935 -0.018073 -0.090845 0.081002 -0.45019 -0.041545 -0.42391 -0.026717 0.23412 -0.44946 0.032379 0.15539 0.33109 -0.10553 -0.24043 -0.18172 0.084794 -0.0089455 -0.19005 -0.027154 -0.27554 -0.17557 0.12749 -0.19859 -0.20571 -0.54165 -0.20884 -0.018733 0.24832 -0.36369 -0.0202 -0.13567 0.48524 0.031678 0.032643 -0.18999 0.36329 -0.15127 0.099185 0.23752 -0.35593 -0.34788 -0.24184 -0.35143 -0.13246 0.1136 0.056789 -0.18611 -0.22213 0.2364 0.23119 -0.051618 0.28649 0.094648 -0.067024 0.32118 0.027164 -0.46152 0.23222 -0.44542 -0.2151 0.19572 0.12255 -0.1977 0.2141 -0.25657 0.13851 -0.13328 -0.18433 0.18789 0.32551 -0.25898 -0.31727 0.33982 -0.027531 0.15714 -0.55583 0.078858 -0.18504 0.54331 -0.29649 -0.25461 0.315 -0.12837 0.28033 -0.033258 -0.083416 0.34219 -0.086741 -0.055488 -0.032381 0.39056 0.11791 -0.09784 -0.40006 -0.069929 -0.17032 
years -0.22386 0.0050832 0.066103 0.25152 0.11903 -0.52845 0.25084 -0.28918 0.12015 -0.055959 -0.262 0.1782 -0.59572 -0.10632 0.34453 -0.099922 -0.24378 -0.18797 0.10646 0.41822 0.18351 -0.081878 0.16752 -0.17005 0.027666 -0.16069 -0.29076 -0.12553 -0.5556 -0.028246 0.12315 0.054094 0.25161 -0.38322 -0.23029 0.10951 -0.17165 0.15235 -0.36175 0.47393 -0.29126 0.0068576 -0.009747 0.024629 -0.19797 0.10688 0.16646 -0.3394 0.2247 -0.044854 -0.20644 -0.044634 -0.15983 0.44491 -0.19585 0.1795 0.052724 -0.30383 0.60805 0.056541 -0.17264 0.1614 -0.66776 -0.16454 -0.0077474 -0.11343 -0.26312 0.77695 -0.34964 0.29857 0.00079761 -0.044304 0.42574 0.49977 -0.3346 -0.29053 0.17999 -0.24503 0.36154 -0.59887 -0.41893 -0.49344 0.68624 -0.38405 -0.2188 0.27745 -0.21572 0.11508 0.1418 -0.45489 0.22476 -0.069567 0.17906 0.19077 0.56059 0.15058 -0.18383 -0.41466 -0.2713 0.21671 
states 0.15496 -0.070053 0.18491 0.15161 -0.10716 -0.19665 0.33605 -0.55051 0.034534 0.012234 -0.080821 -0.46493 -0.328 -0.028403 0.53372 0.25628 -0.29372 -0.68897 -0.19724 0.18537 0.096273 -0.28574 0.20215 -0.35775 -0.36965 -0.18554 -0.20706 -0.026417 -0.37603 0.074318 0.37971 -0.13748 -0.21511 -0.13388 -0.556 0.45202 -0.37528 -0.050713 -0.0053619 -0.032818 0.13859 -0.17807 -0.21439 -0.063596 0.27426 0.047809 -0.44612 0.14682 0.24147 0.2936 0.3205 -0.35083 0.075546 0.054251 0.08812 0.037253 -0.42448 0.15988 0.25201 0.18324 0.062512 0.23904 0.086286 -0.13426 0.17654 -0.13095 0.083477 0.033107 0.021399 0.43759 -0.027204 -0.28247 0.16288 0.29248 -0.65662 -0.84744 -0.032749 0.29716 0.45806 -0.25603 0.095718 -0.22992 0.33456 -0.55818 -0.21045 -0.086604 0.11749 0.15718 -0.030279 -0.083845 -0.44022 -0.24944 0.25185 -0.19326 -0.15147 0.4568 -0.15934 -0.36251 0.15207 -0.22321 
people 0.086099 0.38384 0.16371 0.081837 -0.097926 0.19847 0.033632 -0.5533 0.052841 0.11646 -0.3229 0.10526 0.0075729 -0.027312 0.076885 0.13282 0.29127 -0.18663 -0.27913 0.32152 0.12943 -0.1051 0.031744 -0.15587 -0.18293 0.11007 -0.32353 -0.37176 -0.21368 0.070569 0.45792 -0.27076 0.30464 0.19065 -0.20683 0.35303 0.065654 0.23625 -0.34891 0.1773 0.024584 -0.18624 -0.03546 -0.063809 0.016976 0.12322 -0.57405 0.029496 -0.10567 -0.33185 -0.12231 -0.35943 -0.21303 -0.049679 0.14897 0.25418 -0.013229 -0.35011 0.0098338 -0.018065 0.043155 0.42297 -0.27612 0.35802 0.33091 -0.053846 0.16281 0.014551 -0.0034435 0.1505 0.19666 -0.12979 0.5584 0.35992 -0.71817 -0.43985 0.02944 0.36938 0.33377 -0.37156 0.28573 -0.50872 0.2488 -0.32811 -0.16351 0.058732 0.36179 0.25744 0.041123 -0.61593 -0.092226 -0.027673 0.31282 0.17815 0.066776 0.12081 -0.18404 0.07075 -0.1608 0.39168 
war 0.27742 -0.52784 -0.24736 -0.59974 -0.010911 -0.21078 0.16889 -0.41452 0.087842 0.17187 -0.033796 -0.043773 0.12233 0.058582 0.49048 -0.44509 -0.24559 -0.12718 -0.31468 0.44269 -0.52369 -0.20124 0.10485 -0.35804 -0.12867 -0.21746 -0.19763 -0.096405 -0.39383 0.085719 0.30251 -0.13845 0.22686 -0.2086 -0.21605 0.25046 -0.25499 0.25867 -0.7717 0.34128 -0.16564 -0.071811 -0.24329 -0.34814 0.068512 -0.054307 0.23268 -0.14351 0.25424 0.49162 -0.18011 -0.30925 -0.17791 0.15362 0.10127 -0.081678 -0.45562 0.12738 0.021943 0.16632 -0.095783 -0.05602 0.06467 0.39316 0.16172 -0.13024 -0.27917 0.40523 0.037869 0.17015 0.0075135 0.23557 -0.047965 0.42052 -0.69596 -0.41215 0.20455 0.79935 0.44594 -0.36864 0.33444 -0.44785 0.55054 -0.53685 0.058252 0.1991 -0.20675 0.5021 -0.35353 -0.029348 0.083453 -0.3235 0.075232 0.12597 0.53197 0.20933 -0.15261 -0.60787 -0.22812 0.13157 
during -0.25118 -0.13619 0.37153 0.13863 0.092415 -0.31886 -0.13628 -0.050947 -0.2929 0.044093 -0.15663 -0.37282 -0.24393 -0.12851 0.33215 -0.169 -0.23988 0.0003386 -0.31008 0.22463 -0.058244 -0.064988 0.063903 -0.14364 -0.1186 -0.25503 -0.24341 -0.15829 -0.62887 -0.085219 0.10281 0.13827 0.28458 -0.16564 -0.28012 0.29318 -0.049053 -0.0043532 -0.44464 0.11954 -0.31312 0.19984 0.068867 -0.24218 -0.27063 -0.32807 0.1678 -0.044805 0.065295 0.026977 -0.58992 -0.086673 0.21398 0.12504 0.068284 -0.046303 -0.23944 -0.33035 0.24104 0.31992 -0.023894 -0.061683 -0.038131 -0.00838 0.15092 -0.18935 -0.44055 0.22384 -0.25608 0.38592 0.13577 -0.089054 0.042647 0.19353 -0.52674 -0.32904 0.27857 0.35656 0.37809 -0.40424 -0.023476 -0.39027 0.63408 -0.211 -0.18589 0.17549 0.021629 0.21815 -0.16095 -0.016738 0.27698 -0.1656 0.035349 -0.15278 0.37665 0.36043 -0.21374 -0.64137 -0.18908 -0.21332 
united 0.15806 -0.25248 0.31821 0.021904 -0.090315 -0.44193 0.45317 -0.48067 -0.037684 0.070332 -0.21478 -0.38441 -0.31392 0.075767 0.38356 0.28578 -0.24845 -0.54365 -0.2197 -0.068446 -0.11385 -0.31576 0.12128 -0.33523 -0.19195 -0.18672 -0.23379 -0.098012 -0.4369 -0.080029 0.4096 -0.40159 -0.13292 -0.26012 -0.82846 0.37872 -0.40241 -0.27006 -0.036662 0.052322 -0.014644 -0.30369 -0.22596 -0.31139 0.3585 -0.036085 -0.26664 0.053591 0.2537 0.37454 0.31012 -0.33484 0.14928 0.010141 0.24339 -0.0024988 -0.34122 0.097315 0.2649 0.11383 0.18427 0.32044 0.089785 -0.10779 0.38232 -0.22051 0.05008 -0.11383 -0.0043741 0.4299 0.031074 -0.27222 0.44154 0.2865 -0.46394 -0.81307 0.12892 0.55572 0.29189 -0.13925 0.20301 -0.29022 0.36892 -0.28877 -0.016084 0.010816 0.070702 0.24547 -0.035339 -0.018366 -0.51138 -0.53712 0.08564 -0.045132 -0.2774 0.32653 -0.32866 -0.44701 0.047145 -0.46222 
known -0.19781 0.59975 -0.0049632 0.040975 -0.037882 0.25041 0.0926 -0.087289 -0.31254 -0.10307 -0.087365 -0.65195 -0.089675 0.0078833 0.4757 0.082034 -0.13922 -0.37904 -0.037175 0.23121 -0.12928 -0.31206 0.16781 -0.022368 -0.16162 -0.26685 -0.27208 -0.37229 -0.088645 -0.1468 0.12397 0.22071 0.29399 -0.27212 0.081248 0.51415 -0.40406 -0.32776 -0.047325 0.17501 -0.066974 0.25338 -0.33464 0.48303 -0.16204 0.081811 0.031252 0.18378 -0.070625 0.014613 -0.19661 -0.15654 -0.21198 0.12223 0.040238 -0.22685 0.21318 -0.16623 0.28518 0.20184 0.12627 0.10768 -0.0094431 0.10841 0.45347 -0.16944 0.23341 0.095043 0.0090223 0.017961 0.4046 0.012512 0.53768 -0.019893 -0.4266 -0.44243 0.29598 0.20348 0.17945 -0.37002 -0.014622 0.15308 -0.019253 -0.23472 -0.074545 0.10419 0.26657 0.39883 -0.012967 -0.11284 0.18651 -0.20616 0.062492 -0.032716 0.42711 -0.10481 -0.20054 -0.12445 -0.12107 0.11466 
if 0.0344 0.016845 0.74884 0.2705 -0.26214 0.78709 0.31768 -0.22919 0.1749 -0.33928 -0.07777 0.064848 -0.27551 0.04489 0.33083 -0.085415 -0.11096 -0.60307 0.28234 0.070443 -0.12879 -0.11766 -0.069095 0.1054 0.12835 -0.065332 -0.28754 -0.12664 -0.035425 -0.048283 -0.10959 -0.098135 -0.036404 -0.26306 -0.073039 0.15642 0.047276 -0.091773 -0.47251 0.3872 -0.34694 0.12611 -0.067809 -0.17773 -0.29425 0.08967 0.0095214 -0.019115 0.2091 0.06535 -0.22555 -0.36738 -0.045904 -0.3083 0.032982 0.14267 -0.34299 0.072065 0.32618 0.14248 0.10728 0.54408 -0.17204 0.45021 -0.058595 0.20754 0.32649 -0.20434 0.35423 -0.14024 -0.038503 -0.087821 0.058093 0.0038458 -0.35443 -0.16735 0.028296 0.077061 0.2557 -0.054058 0.054248 0.15484 0.20903 -0.21492 -0.26858 0.3573 0.7469 -0.09947 0.089071 0.11301 0.38149 -0.0010294 0.22767 0.08478 0.41517 0.11282 0.1383 -0.069275 0.052346 -0.1603 
called -0.22056 0.36334 0.436 0.057035 -0.07079 0.47241 0.024128 -0.28246 -0.2546 -0.51829 -0.080513 -0.34187 -0.15305 0.010525 0.68364 0.050697 -0.40551 -0.44401 -0.29176 0.15494 0.065516 -0.049537 0.17532 -0.16829 -0.031587 -0.13698 -0.34139 0.11034 -0.21125 -0.26498 -0.13752 0.37559 0.045943 -0.050661 -0.093752 0.41921 -0.072573 -0.20022 0.16897 -0.062814 0.0059066 0.18913 -0.20397 -0.055676 -0.39231 -0.027099 -0.22799 0.1439 -0.20949 -0.09985 -0.20744 0.19053 0.1449 0.12755 0.27009 -0.098416 0.26194 0.061867 0.57587 0.11411 0.30969 0.058716 -0.1749 -0.12483 0.15895 -0.22718 -0.018643 -0.25654 -0.18576 0.02394 0.13984 -0.20634 0.20209 0.17751 -0.46552 -0.48999 0.52516 0.17595 0.13778 -0.19338 0.21876 0.059378 0.020623 -0.35259 -0.22073 0.0046364 -0.0079414 0.27782 -0.081438 0.21571 -0.052526 -0.43711 -0.21194 -0.19106 0.32408 0.13453 0.0059175 -0.37488 0.036822 0.098423 
use -0.27044 0.20466 0.31195 0.2368 0.12947 -0.1907 0.076317 -0.73156 0.020961 -0.61286 0.15106 -0.52786 -0.10127 -0.15365 0.47947 -0.063632 -0.34406 -0.13969 0.20201 0.16125 -0.068828 -0.0022114 0.24881 0.043817 0.16949 0.054584 0.018288 -0.23713 -0.074504 -0.22466 0.089962 0.22354 -0.35586 -0.039969 0.03965 0.8134 0.19315 -0.091213 -0.038678 0.142 -0.18313 -0.13178 -0.29906 0.11255 0.17121 -0.13419 -0.083481 -0.066901 0.20277 -0.44656 -0.16274 -0.35529 -0.11651 0.040431 -0.03902 0.18653 0.219 -0.071729 0.40956 0.11496 -0.25168 0.52411 0.053478 0.29491 0.26766 0.1321 0.29934 -0.12875 -0.15397 0.33483 0.47437 -0.31058 0.21217 0.018532 -0.4392 -0.56593 0.35887 0.21928 0.47088 -0.074526 -0.12168 0.082925 -0.041065 -0.17561 -0.13332 0.22253 0.11857 0.12744 -0.2794 -0.07851 0.042192 -0.3754 0.03959 -0.30475 0.31531 -0.22571 0.08159 -0.50972 -0.042266 0.15634 
th 0.095132 0.26495 -0.20019 0.45723 -0.11714 -0.31878 -0.19809 -0.081468 -0.09912 -0.55157 -0.59109 -0.56306 -0.31172 0.35647 0.71863 -0.0304 -0.12373 -0.22375 -0.14327 0.11495 0.12489 0.095102 0.3269 0.49001 -0.20974 -0.36099 0.14191 -0.23349 -0.19592 -0.21321 -0.056979 0.14637 -0.00044608 0.0054111 -0.2918 0.78928 -0.49653 0.27121 -0.3159 -0.11484 0.13479 0.4461 -0.014357 -0.18778 -0.26234 -0.16241 -0.0050216 0.10092 -0.036176 -0.0063536 -0.41213 0.093325 0.13071 -0.1507 0.2829 -0.5211 0.074298 -0.26704 0.95942 0.11876 -0.14569 0.40616 -0.1884 -0.35601 0.44618 -0.43339 0.037966 0.22082 -0.60033 0.44347 -0.061785 -0.8258 0.20433 0.19767 -0.69909 -0.5208 0.31321 0.50828 0.95208 -0.60437 -0.1834 -0.5331 0.16853 0.079362 -0.05269 -0.025535 -0.029163 0.46028 -0.5 -0.11662 -0.20979 -0.39204 -0.013309 -0.21661 0.10922 0.21985 -0.26689 -0.37504 -0.23549 -0.14468 
system -0.025818 0.57836 0.3185 0.21486 0.025731 0.34041 0.31254 -0.19063 -0.37221 -0.19305 0.13616 -0.1909 -0.18549 -0.52078 0.35924 0.17438 -0.36818 -0.16607 -0.49081 -0.062991 -0.16788 -0.24873 0.47376 -0.035442 0.082199 -0.50326 -0.33267 -0.3529 -0.14031 0.074205 -0.38396 0.41781 0.20473 -0.087413 0.0073583 0.44257 0.098611 0.062422 0.036294 0.45336 -0.46804 -0.33898 -0.57636 0.10672 0.26282 0.093143 -0.18854 -0.020279 0.24762 -0.60184 0.032353 -0.42505 -0.0078762 0.29071 0.043216 0.54593 0.28047 0.57512 0.089827 0.26474 0.072511 0.60238 0.29526 -0.21363 -0.090055 -0.0050746 -0.14299 -0.031944 -0.25482 0.15243 0.045563 -0.22921 0.15297 0.19607 -0.58051 -0.16619 0.098119 0.58218 0.49873 -0.022888 -0.44381 0.17944 0.099151 -0.55085 0.04152 -0.012417 0.18685 0.057798 -0.22056 0.050163 0.083848 0.033243 0.45174 -0.13549 0.56898 0.19636 0.15226 -0.10137 0.032906 0.045978 
often -0.073594 0.088333 0.43156 0.077614 -0.030841 0.22177 -0.070431 -0.0073346 -0.014781 -0.47475 -0.095938 -0.11227 -0.13405 0.15703 0.33984 -0.0818 0.042157 -0.074018 -0.12677 0.30676 0.22317 -0.10776 0.012098 -0.12747 0.021269 -0.25605 -0.18391 -0.56192 -0.066955 -0.33342 0.086395 0.45167 -0.093354 -0.031501 0.4712 0.54412 0.12032 -0.26047 -0.35135 -0.0078727 -0.087003 -0.18503 -0.38176 -0.023782 0.15726 -0.047447 -0.16042 -0.068443 0.11192 -0.2381 -0.31359 -0.29088 0.010015 0.018715 0.065104 -0.023052 0.077807 -0.27099 0.23895 0.26696 0.32674 0.56135 -0.17147 0.44879 0.26708 -0.04496 0.21158 -0.20878 0.0075688 0.23271 0.24767 -0.10503 0.16941 0.2659 -0.38076 -0.52642 0.1492 0.26925 0.13066 -0.15135 0.1546 0.011033 -0.071982 -0.35566 -0.1914 0.28369 0.32864 0.0064167 0.038817 -0.075463 0.024009 -0.38148 -0.23121 0.084034 0.19326 -0.047619 -0.18309 -0.46964 -0.057146 -0.17147 
state 0.25358 0.17803 0.17074 0.21448 -0.1787 0.001139 0.17405 -0.58248 0.20755 -0.21946 -0.28571 -0.41294 -0.011944 0.0059984 0.55411 0.045761 -0.46139 -0.4945 -0.51787 0.0030996 0.16688 -0.18252 0.44282 0.0077732 -0.59394 -0.12141 -0.18375 0.21659 -0.28635 -0.17788 0.20811 -0.25616 -0.21217 -0.04466 -0.14583 0.49936 -0.098713 -0.026816 -0.092587 -0.16024 -0.055641 0.013333 -0.53211 -0.21243 -0.28738 0.18159 -0.73512 0.32902 0.60207 0.052521 0.058981 -0.33452 -0.080299 0.55445 -0.074116 0.22934 -0.1204 0.056618 0.30872 0.42584 0.3102 0.077131 0.011386 0.037614 0.18867 0.074732 -0.45778 0.19056 -0.15721 0.074052 -0.18558 -0.24431 0.076432 0.28947 -0.52754 -0.40927 -0.16408 0.14208 0.54332 -0.17509 -0.035924 -0.14443 -0.15944 -0.61102 -0.090238 -0.094856 -0.072696 0.16881 0.055604 -0.035708 -0.19697 -0.094675 0.23412 -0.10276 0.14076 0.40944 -0.10554 -0.064659 0.3235 0.016779 
so 0.11439 0.060305 0.3655 0.44804 -0.11939 0.36392 0.095116 -0.26953 0.31678 -0.39566 -0.16187 -0.04902 -0.25615 0.019811 0.38171 0.038992 -0.046292 -0.42294 -0.0093338 0.28913 0.1224 -0.10892 0.0098253 -0.10141 -0.18323 0.1256 -0.10586 -0.15652 -0.28378 -0.079795 -0.0010334 0.22848 -0.22558 -0.25446 -0.073301 0.1818 -0.043787 -0.073541 -0.20815 0.069592 -0.3381 0.10966 -0.31417 -0.016609 -0.38469 0.0024118 -0.17582 -0.023564 0.099034 -0.10515 -0.24963 -0.071418 -0.10731 -0.080923 0.064338 -0.11664 -0.087739 -0.078003 0.5011 0.010143 -0.13949 0.44729 -0.17754 0.17424 0.097239 -0.014807 0.10763 -0.11213 -0.1325 -0.20289 0.10702 -0.09633 0.20565 0.14775 -0.63401 -0.46488 0.23949 0.15767 0.26577 -0.16783 0.0040691 -0.1631 -0.050242 -0.40503 -0.18834 0.32258 0.22174 -0.014472 -0.26688 0.010904 0.14333 -0.33296 0.082482 -0.0074261 0.38895 -0.054071 0.09314 -0.10975 -0.0011468 0.14796 
history 0.07848 0.2407 -0.017009 0.32737 0.12089 0.058599 -0.16193 -0.4523 -0.3131 0.01277 -0.11749 -0.388 0.059613 -0.104 0.66663 0.31416 -0.1318 -0.12767 -0.12358 0.3542 -0.020434 -0.074774 0.61566 -0.096382 -0.22781 -0.29718 0.04143 0.055827 0.04466 -0.41737 0.28383 -0.11399 -0.30941 -0.080019 -0.42004 0.48116 -0.37127 0.0684 -0.29534 0.36976 0.04085 -0.12153 -0.31673 0.027438 0.30792 -0.053379 0.19023 0.33161 -0.079197 -0.10937 0.083864 -0.043551 -0.044518 0.33628 0.23031 0.079128 0.013859 -0.28599 0.049904 0.24526 0.048079 -0.11112 -0.060374 0.20548 0.20858 0.24528 -0.3138 0.15439 -0.29236 0.40067 -0.11013 -0.3389 0.20695 0.061616 -0.42457 -0.14544 -0.0076524 0.38871 0.66861 -0.82842 -0.38764 -0.13333 0.35028 -0.026667 -0.070872 0.40037 0.020894 0.40321 0.012865 -0.29534 0.026906 -0.27587 -0.13816 0.083041 0.1948 0.31111 -0.11948 -0.45013 -0.35692 0.30216 
will -0.17908 0.12531 0.45451 0.24742 -0.56349 0.010324 -0.13943 -0.61823 0.25011 -0.63174 -0.35443 -0.0093181 -0.2272 0.031385 0.43015 0.10786 0.087685 -0.421 -0.12001 0.65052 -0.18396 -0.31073 -0.29081 -0.13227 0.030538 -0.17294 -0.052087 -0.1294 -0.072306 -0.071534 -0.0063534 0.11298 0.1168 -0.2287 -0.18667 0.31761 0.066585 -0.046902 -0.35894 0.19031 -0.49092 0.072853 -0.25557 -0.22754 -0.4135 -0.0080403 -0.25399 0.0016993 0.010157 0.009141 -0.082514 -0.2015 0.073643 -0.37348 0.13108 0.23926 0.047311 -0.26734 0.47123 0.27841 -0.034821 0.38906 -0.24286 0.27958 0.00509 0.070562 0.072558 -0.089015 0.12727 -0.082027 -0.034933 0.26074 0.20627 0.096103 -0.63533 -0.2047 0.29251 -0.084273 0.14194 -0.04331 -0.26898 -0.028529 0.26971 -0.20481 -0.14055 0.14454 0.36592 -0.19841 -0.1416 -0.036603 0.11703 -0.21633 0.19482 -0.013079 0.25396 0.10245 0.17464 0.077109 0.14387 -0.20148 
up 0.044245 0.0055549 0.17032 0.070507 -0.13189 0.28353 -0.16483 -0.099191 -0.016671 -0.52825 -0.32594 0.25586 -0.13883 0.28651 0.29488 0.21121 -0.19329 -0.087304 0.25459 0.11474 -0.34129 -0.15234 0.13297 -0.40009 -0.026431 0.15501 -0.32569 -0.38407 -0.084309 -0.26861 -0.0097106 0.21028 -0.0075962 0.012039 -0.36918 -0.010085 -0.15626 -0.12533 -0.04602 0.1287 -0.42875 0.034331 0.079672 -0.33595 -0.42372 0.13872 -0.039155 0.31166 0.2763 -0.43241 -0.33352 -0.38304 0.14281 -0.32885 0.063326 0.089041 -0.2712 -0.11018 0.11376 0.1345 -0.2995 0.16294 -0.029356 -0.16075 -0.19481 -0.020462 0.23138 -0.03907 -0.37577 0.026462 -0.058818 -0.074273 0.49967 0.23436 -0.32796 -0.30511 0.22121 0.11721 0.02734 -0.030164 -0.11133 -0.11607 0.29401 -0.18209 -0.1761 0.19715 0.048293 0.15146 -0.096008 -0.41702 0.47623 -0.12578 0.12926 0.43681 0.28333 0.18653 -0.18106 -0.0057412 0.15797 -0.046814 
while -0.071129 0.20299 0.24231 0.15444 -0.11863 0.076055 0.043025 -0.35899 -0.031769 -0.32625 -0.10124 -0.029557 -0.26423 0.19987 0.37725 0.14165 -0.072561 -0.22991 -0.064729 0.21411 0.17574 -0.032713 0.10946 -0.10678 -0.23173 -0.04505 -0.20295 -0.4779 -0.27034 -0.011843 0.077798 0.34959 0.029568 -0.058698 -0.044596 0.22727 0.11297 -0.28138 -0.2256 -0.03291 -0.35631 -0.041837 -0.16104 -0.044926 -0.26895 -0.27818 -0.11386 0.049435 0.20034 -0.27322 0.050369 -0.27458 -0.14173 -0.014899 -0.084482 0.087284 -0.19262 -0.15323 0.23608 0.10859 0.023978 0.20425 -0.084355 0.1274 0.21124 -0.10957 0.17092 0.080445 -0.22834 0.18978 -0.018362 -0.25837 0.28293 0.23957 -0.40937 -0.43252 0.11061 0.16372 0.09689 -0.11465 -0.14099 -0.26596 -0.040915 -0.27179 -0.1321 0.32514 0.079454 0.071064 -0.15943 -0.15097 0.2109 -0.14615 0.00035311 0.032904 0.27755 0.059324 -0.15932 -0.36714 0.035609 0.065388 
where -0.017971 0.014717 0.2115 0.47274 0.084103 0.62365 0.2784 -0.28813 0.003822 -0.32551 -0.08888 -0.17521 -0.27036 0.031647 0.62835 0.33235 -0.41219 -0.49375 -0.26708 0.11071 0.15007 0.15725 0.10074 0.19161 -0.4082 0.043399 -0.2208 -0.038574 -0.5749 -0.037541 -0.015016 0.2057 -0.12177 -0.13277 -0.17322 0.20155 0.0072051 -0.28183 -0.34585 0.16516 -0.047538 -0.036858 0.035419 -0.34365 -0.27108 -0.20116 -0.095321 0.051308 0.27918 -0.14216 0.033128 -0.15683 0.28268 -0.18155 0.20836 0.019449 -8.8859e-05 -0.10103 -0.079982 0.19886 0.23183 0.23779 -0.072553 -0.063393 0.21666 -0.094604 -0.14175 -0.070778 0.0090696 -0.10107 0.13808 0.016127 0.14479 0.33829 -0.49928 -0.34366 0.30113 0.10425 0.073191 -0.23218 0.037351 -0.071115 -0.016869 -0.40202 -0.11158 0.37195 0.26477 -0.062473 0.097766 0.212 0.2299 -0.10255 0.044298 0.081798 0.33058 0.2189 -0.26118 -0.43569 -0.1143 0.19916 
city 0.40116 0.42704 -0.18316 0.057367 -0.03918 -0.22794 0.25623 -0.11744 -0.060955 -0.26584 -0.34267 -0.077453 -0.064943 0.079512 0.37877 -0.23031 -0.40596 -0.29715 -0.66187 0.16825 0.69931 -0.14659 0.6449 0.19952 -0.3681 -0.26531 -0.056849 -0.64878 -0.53731 0.046298 0.44571 0.076709 0.31389 0.04037 -0.35696 0.49689 -0.43454 -0.068209 -0.41621 0.54983 -0.070793 0.049628 -0.32301 -0.14938 -0.16327 0.15272 -0.22131 0.76164 0.64143 0.10906 0.052672 0.1366 -0.3688 0.20169 0.43331 0.21167 0.16135 -0.073107 -0.13455 -0.18159 0.042078 -0.020398 -0.53612 -0.34045 0.2605 0.17743 -0.34489 0.036706 -0.03307 -0.051158 -0.19721 -0.21117 0.52863 0.10835 -0.87383 -0.37529 0.051578 0.3901 0.10965 -0.0011917 0.010718 -0.39822 0.19216 -0.23561 -0.038045 -0.064211 -0.22899 0.56578 0.027542 -0.10798 -0.25737 -0.13749 0.30887 0.25664 0.20607 0.027584 -0.16333 -0.17865 0.51856 0.25552 
being -0.22889 -0.0080775 0.4309 0.33869 -0.040789 0.14069 0.028695 -0.067036 0.153 -0.25573 -0.012012 0.072455 -0.22069 0.19252 0.26417 0.16908 -0.14704 -0.54452 -0.47108 0.22594 0.062152 0.054482 0.19353 -0.060794 -0.10685 -0.088433 0.17456 -0.38681 -0.342 0.22096 0.033484 0.3533 -0.2862 -0.28725 0.18443 0.39496 -0.034862 -0.01609 -0.31644 -0.015432 -0.32331 0.011019 0.012401 -0.23885 -0.43329 -0.21658 -0.33389 -0.14311 -0.038487 0.037939 0.15761 -0.08422 -0.048665 0.25908 0.04732 -0.17081 0.016223 0.11786 0.48257 0.16865 0.3402 0.18571 -0.099009 0.14662 0.22687 0.092756 0.031287 -0.16235 -0.33184 0.18704 0.085476 -0.3701 0.20855 0.18805 -0.75486 -0.49455 0.13091 0.4027 0.26191 -0.17809 0.26395 -0.14663 -0.059304 -0.28291 -0.37866 0.095358 -0.062392 -0.073439 -0.039884 -0.011155 0.10503 -0.39759 -0.32766 -0.15233 0.24129 0.087631 -0.17276 -0.24251 0.028954 0.14657 
english -0.3654 0.48171 -0.17681 0.31351 -0.25379 0.20486 0.27594 0.21004 0.50954 -0.34291 -0.16045 -0.40821 0.314 -0.094219 0.21981 -0.016689 -0.23232 0.17704 -0.18023 -0.2293 -0.014265 0.15284 0.10002 -0.14584 0.31996 0.031183 -0.26949 -0.2007 -0.23727 -0.28298 0.14277 -0.1635 0.022773 0.066829 -0.23862 0.40093 -0.42166 0.032804 -0.3732 0.27963 -0.097176 -0.30865 0.051336 -0.10399 0.3463 -0.14236 0.023462 -0.47485 0.097568 -0.0093301 0.1613 -0.87345 -0.56401 -0.34687 0.15948 -0.31698 0.17989 0.02335 0.65338 0.12824 -0.067263 0.070655 -0.25789 -0.0064227 0.36585 -0.0055389 0.28049 -0.58766 -0.14647 0.21192 0.079577 -0.019027 0.66179 0.19694 -0.4983 -0.22244 0.0053242 0.13664 0.6805 -0.16806 0.015652 -0.23871 0.2694 -0.44196 0.32337 0.010991 0.15298 0.78212 -0.22458 -0.30421 -0.38997 0.18858 -0.40278 -0.27968 -0.19547 -0.13362 -0.38389 -0.17332 -0.52227 0.29333 
then 0.064577 -0.20689 0.53635 0.45804 -0.054713 0.49059 0.20732 -0.31696 0.022445 -0.63817 -0.32961 -0.14372 -0.43747 0.15411 0.52263 -0.035751 -0.40543 -0.61508 -0.27077 -0.013998 0.01952 0.074787 -0.086002 0.047326 -0.25152 -0.1054 -0.17734 0.12779 -0.41241 0.025335 -0.12534 0.25084 -0.090374 -0.072876 -0.27222 0.038282 -0.0098054 -0.14713 -0.063662 0.055108 -0.14696 0.37283 0.042344 -0.38485 -0.57289 -0.17837 -0.19419 -0.036826 0.096172 -0.10437 0.19429 -0.036245 0.12091 -0.18722 0.30149 -0.087301 -0.18372 -0.034653 0.45851 0.12419 0.10214 0.20129 -0.28451 -0.034746 0.088521 0.021218 -0.094361 -0.05525 -0.30457 -0.082739 -0.0033207 -0.30048 0.057956 0.37915 -0.37405 -0.41352 0.31768 1.9166e-05 0.28688 -0.13144 0.098511 -0.12606 0.1711 -0.31641 -0.19639 0.30864 0.20719 -0.011143 -0.03273 0.11108 0.26787 -0.2281 0.073789 0.010729 0.55252 0.24416 0.083402 -0.05882 0.19005 -0.16522 
any -0.15609 0.14896 0.56594 0.25576 -0.22742 0.44314 0.028122 -0.38883 -0.10585 -0.38774 0.16778 0.10386 -0.18582 0.084359 0.22046 -0.012585 -0.055122 -0.46534 -0.0078656 0.40031 -0.1154 -0.14932 0.27974 0.044012 0.073972 -0.093249 -0.15938 -0.18228 -0.27593 -0.18733 -0.08354 -0.024879 -0.22679 -0.21756 -0.027859 0.18365 -0.040457 0.053716 -0.55954 0.089952 -0.26022 0.20451 -0.08478 -0.06905 -0.1146 -0.061324 -0.21859 0.067077 0.10564 -0.093134 -0.016326 -0.34393 0.16102 -0.097689 -0.23594 0.46122 -0.12144 0.09248 0.46103 0.24338 0.066939 0.42058 0.0071554 0.38057 0.15251 -0.020885 0.41143 -0.24104 0.33113 -0.008989 -0.08392 -0.13319 0.24317 0.023443 -0.31016 -0.13759 0.036779 0.19735 0.37927 0.14213 0.039026 0.10214 0.057627 -0.33568 -0.3199 0.44806 0.47657 0.097935 0.25075 -0.06546 0.26798 -0.15624 0.090563 0.038074 0.41498 0.031801 0.11869 0.0026518 0.046065 0.027426 
both -0.094776 0.2917 0.19868 0.016217 -0.17795 0.16854 0.19816 -0.20541 -0.005776 -0.24355 -0.012987 -0.074289 -0.30715 -0.069318 0.26309 0.1499 0.040297 -0.23309 -0.020292 0.16026 0.0093626 -0.036223 -0.10573 -0.1249 -0.24546 -0.21068 -0.34859 -0.33457 -0.1246 -0.3046 0.044409 0.40831 -0.087703 -0.056711 0.040272 0.25688 -0.026935 -0.19264 -0.18857 -0.064141 -0.1358 -0.016882 -0.30458 -0.11702 -0.074668 -0.073613 -0.11566 0.081785 0.10181 -0.0020507 0.11065 -0.44952 -0.067425 0.029249 -0.19234 -0.048035 -0.025971 0.16242 0.151 -0.0065419 -0.032354 0.22473 0.061411 0.19974 0.30305 -0.056523 0.096347 -0.10294 -0.041971 0.27122 0.068259 -0.10359 0.26386 0.49353 -0.35395 -0.32981 0.053408 0.095236 0.10236 -0.065461 0.17956 -0.085732 0.19996 -0.28742 -0.010155 0.39756 0.076875 0.065807 -0.050684 -0.20055 0.21691 -0.12384 -0.10814 -0.090548 0.29616 0.24532 -0.17161 -0.30344 -0.051673 0.011166 
under -0.20275 0.39871 -0.10654 0.33415 0.048038 -0.21845 0.21523 -0.67529 -0.24265 -0.52856 0.10403 -0.18102 -0.18913 -0.057434 0.20592 -0.051295 -0.024932 -0.65996 -0.44284 0.2646 -0.098187 -0.036968 -0.046151 -0.43765 -0.61591 -0.1737 -0.18759 -0.13917 -0.48047 0.020596 -0.25818 -0.13388 -0.038917 -0.090863 -0.55563 0.065153 -0.32512 0.21451 0.28466 0.48811 -0.2134 -0.24212 -0.17205 0.058104 -0.59347 0.098618 -0.33542 0.010885 0.12038 -0.0022452 0.11247 -0.27841 0.28352 0.18608 0.082369 0.21353 0.066046 0.013163 0.38914 0.17756 0.13839 -0.054415 -0.099021 -0.19049 0.25997 0.20367 -0.17266 0.2435 -0.45219 0.14188 0.11123 -0.52624 0.34847 0.18404 -0.35194 -0.33707 0.10583 0.028576 0.26136 0.080741 0.025965 0.085284 0.24358 -0.5275 -0.11672 0.53281 -0.055161 0.074612 0.036143 -0.047596 0.25316 -0.32146 -0.18212 0.068387 0.42471 -0.15768 0.03311 -0.32451 -0.30687 -0.16459 
out 0.25276 -0.18557 0.25232 0.086291 -0.16666 -0.01207 -0.060478 -0.1507 -0.15614 -0.46762 -0.27413 0.36912 -0.34197 0.3047 0.40596 0.17971 0.00038103 -0.26198 0.091321 0.20412 -0.24627 -0.11807 0.093599 -0.38439 -0.21294 0.069143 -0.28758 -0.24569 -0.26252 -0.2307 -0.0069358 0.23597 0.044347 -0.066701 -0.16522 0.14411 -0.18897 -0.04844 -0.15531 0.064737 -0.3876 0.15641 -0.036004 -0.16122 -0.46269 0.072029 -0.11303 0.32507 0.19533 -0.28233 -0.026167 -0.25341 -0.003019 -0.32018 0.22063 0.093182 -0.084986 0.016066 0.20162 0.29599 -0.1937 0.40947 0.0027701 0.22712 -0.18256 0.017539 0.3257 -0.17266 -0.38319 -0.0061588 -0.20445 -0.20719 0.43785 0.41671 -0.19867 -0.3104 0.27345 0.51833 0.39023 -0.2174 -0.086834 -0.30272 0.22359 -0.3189 0.043684 0.37068 0.01755 0.18815 -0.16154 -0.25621 0.28699 -0.10373 -0.039708 0.42374 0.54608 0.0047192 -0.013253 -0.072279 0.24743 -0.24108 
made -0.14864 0.17611 0.087366 0.25906 0.008601 -0.29517 0.010513 -0.16653 -0.36538 -0.17289 -0.15843 -0.32197 -0.016936 0.12997 0.22616 -0.036434 -0.16143 -0.20913 0.23381 0.42106 -0.26901 -0.050789 0.16455 -0.21782 -0.04418 0.25687 -0.16467 -0.4314 0.035444 -0.18802 -0.27898 0.23253 -0.37313 -0.12154 -0.43368 0.36112 -0.25325 -0.012891 -0.12378 -0.23367 -0.55536 0.084511 -0.37963 0.03875 -0.28851 0.019088 0.011157 0.16825 -0.0029446 -0.060064 -0.31043 -0.03298 -0.21258 0.19984 0.1596 -0.03698 -0.081248 0.085731 0.22695 0.075647 -0.026364 0.23478 -0.20543 0.19586 0.12693 -0.088963 0.22273 -0.13446 -0.43958 0.13361 0.075847 -0.2294 0.25102 -0.037715 -0.59186 -0.40976 0.46831 0.054051 -0.0084424 -0.058907 -0.24242 -0.37069 0.16327 -0.58535 -0.082551 0.47507 0.022628 0.26083 -0.21399 -0.22657 0.001931 -0.40196 0.00060748 -0.0045676 0.28648 0.0065201 -0.0047958 -0.14619 0.066233 0.013671 
well 0.041448 0.33411 0.053141 0.088292 0.012668 0.12375 0.0045205 -0.014064 0.090541 -0.086935 -0.028569 -0.3038 -0.090495 0.066545 0.26768 0.16804 0.038666 -0.2508 -0.11909 0.17525 -0.12919 -0.07485 0.04214 -0.052379 -0.1405 -0.17351 -0.14117 -0.4963 -0.057053 0.019581 -0.054726 0.35827 -0.042657 -0.063818 0.0060052 0.46549 -0.30217 -0.33381 -0.25031 0.054062 -0.21391 0.032866 -0.54278 0.097888 0.015291 0.02245 -0.079978 -0.077475 0.12496 0.042645 -0.12761 -0.37437 -0.046095 -0.037378 -0.030566 0.014204 0.21781 -0.28124 0.049068 0.22202 -0.022157 0.41635 0.014686 0.031102 0.38902 -0.063844 0.089802 0.032592 -0.10567 -0.016865 0.26335 -0.068626 0.36564 0.23484 -0.35018 -0.43056 0.13781 0.22456 0.093553 -0.18718 0.10319 -0.055207 0.061083 -0.27518 -0.14028 0.25123 0.2174 0.097112 0.092805 -0.15918 0.29926 -0.32653 -0.0026103 0.065085 0.35281 0.032517 -0.30427 -0.36207 0.047591 0.067295 
her -0.49647 0.0557 0.69399 0.40868 -0.022928 0.091872 -0.14196 -0.11924 0.25004 -0.18756 -0.43147 0.53249 -0.15961 0.67011 0.49994 -0.10279 0.037803 -0.60432 -0.33357 0.46147 0.48237 -0.24835 0.074986 0.085733 -0.29753 -0.052603 -0.17416 0.060214 -0.5368 0.41963 -0.12051 0.15707 -0.4279 0.37457 0.19948 0.1096 -0.25192 0.0062127 0.15931 -0.2798 -0.64732 -0.098272 -0.28135 -0.57629 -0.043396 -0.43215 -0.9229 -0.23376 0.041516 -0.16918 0.57618 0.3468 -0.143 0.503 0.18761 -0.088268 -0.2005 -0.31988 0.73196 0.1932 0.067681 0.36676 -0.19104 -0.068189 0.29047 -0.20669 -0.1052 -0.053278 -0.64697 0.062262 0.074808 0.06684 0.083494 0.4033 -0.15665 0.0047891 0.66604 0.46004 0.21976 -0.025975 -0.19071 -0.69396 0.31596 -0.033178 -0.1602 0.67035 0.13112 0.59428 -0.32628 0.23982 0.089088 -0.59085 0.027147 -0.086439 -0.22468 -0.038495 -0.2811 -0.69813 0.10321 -0.10644 
